{"learner":{"attributes":{"best_iteration":"99","best_ntree_limit":"100","best_score":"0.00026132756273236","scikit_learn":"{\"n_estimators\": 100, \"objective\": \"reg:squarederror\", \"max_depth\": null, \"max_leaves\": null, \"max_bin\": null, \"grow_policy\": null, \"learning_rate\": null, \"verbosity\": null, \"booster\": null, \"tree_method\": \"hist\", \"gamma\": null, \"min_child_weight\": null, \"max_delta_step\": null, \"subsample\": null, \"sampling_method\": null, \"colsample_bytree\": null, \"colsample_bylevel\": null, \"colsample_bynode\": null, \"reg_alpha\": null, \"reg_lambda\": null, \"scale_pos_weight\": null, \"base_score\": null, \"missing\": NaN, \"num_parallel_tree\": null, \"random_state\": null, \"n_jobs\": null, \"monotone_constraints\": null, \"interaction_constraints\": null, \"importance_type\": null, \"gpu_id\": null, \"validate_parameters\": null, \"predictor\": null, \"enable_categorical\": false, \"feature_types\": null, \"max_cat_to_onehot\": null, \"max_cat_threshold\": null, \"eval_metric\": \"rmse\", \"early_stopping_rounds\": 10, \"callbacks\": null, \"evals_result_\": {\"validation_0\": {\"rmse\": [0.20210342597109177, 0.1415090733593547, 0.0991005551223547, 0.06940507791352264, 0.04861491496779311, 0.03406273808732142, 0.02387189091982704, 0.01673809416527744, 0.01174204990276185, 0.00824450561262026, 0.00579733798149035, 0.00408810363164436, 0.00289804905021812, 0.00207413303516037, 0.00151199322579746, 0.00113484065458877, 0.00088794999072984, 0.00072865377050301, 0.00063507418710222, 0.00058018449786214, 0.00054942396381876, 0.00053197840046639, 0.00051817151720118, 0.0005026853927984, 0.00049440348951363, 0.00048825325556871, 0.00048304207972122, 0.00047688505325441, 0.00047560837101595, 0.00047015813758616, 0.00046841708133818, 0.00046675648797821, 0.00046585884901353, 0.00046430737652651, 0.00045104514621869, 0.00043832877680667, 0.00043763243104953, 0.00043669549918829, 0.00043228225713825, 0.00042871917255659, 0.00042533841806461, 0.00042363132753252, 0.00041110116285977, 0.00041058073036719, 0.00040864832294353, 0.00040794538545373, 0.00040738045815944, 0.00040697853277506, 0.000406740091536, 0.00040614097979772, 0.00039959209356427, 0.00039603028279783, 0.0003959668085996, 0.0003951570773843, 0.00039040345437155, 0.00038143705121482, 0.00037708301292925, 0.00037076972778499, 0.00036220505684312, 0.00035445031009463, 0.00035028703261181, 0.00034633127752585, 0.00034336599317401, 0.00033992307944431, 0.00033943875067462, 0.00033900394843605, 0.00033695995106938, 0.00033641938168768, 0.00033260874421681, 0.00033250882955764, 0.00033155065512734, 0.00033149351245237, 0.00032985764050544, 0.00032462795547555, 0.00032010256668062, 0.00031686858628259, 0.00031358390207626, 0.00031043198202242, 0.00030776557243955, 0.0003027729047443, 0.00029959667733063, 0.00029911166548967, 0.00029747829072034, 0.00029740812481009, 0.00029620316747066, 0.00029431036728798, 0.00029256392873005, 0.00029225903963593, 0.00029212823581875, 0.0002850319055793, 0.00028178122314814, 0.00027783742398301, 0.00027563166780586, 0.00027221264053374, 0.00026941774337847, 0.00026719995635245, 0.00026441948064046, 0.00026387405114863, 0.0002619692086529, 0.00026132756273236]}}, \"_estimator_type\": \"regressor\"}"},"feature_names":[],"feature_types":[],"gradient_booster":{"model":{"gbtree_model_param":{"num_parallel_tree":"1","num_trees":"100","size_leaf_vector":"0"},"tree_info":[0,0,0,0,0,0,0,0,0,0,0,0,0,0,0,0,0,0,0,0,0,0,0,0,0,0,0,0,0,0,0,0,0,0,0,0,0,0,0,0,0,0,0,0,0,0,0,0,0,0,0,0,0,0,0,0,0,0,0,0,0,0,0,0,0,0,0,0,0,0,0,0,0,0,0,0,0,0,0,0,0,0,0,0,0,0,0,0,0,0,0,0,0,0,0,0,0,0,0,0],"trees":[{"base_weights":[-5.951918E-8,-2.4672969E-1,2.532702E-1,-3.753862E-1,-1.2211601E-1,1.3014695E-1,3.768765E-1,-4.4133633E-1,-3.1672284E-1,-1.8151568E-1,-5.285913E-2,6.476793E-2,1.8837425E-1,3.1705296E-1,4.4017607E-1,-4.6998584E-1,-4.1132265E-1,-3.5534152E-1,-2.8939146E-1,-2.1487957E-1,-1.4562279E-1,-8.140236E-2,-2.2002706E-2,3.2881323E-2,9.110864E-2,1.5803477E-1,2.2341362E-1,2.8465992E-1,3.4795964E-1,4.1048723E-1,4.703105E-1,-4.8481828E-1,-4.5480508E-1,-4.2547914E-1,-3.9682925E-1,-3.688442E-1,-3.4151307E-1,-3.1482494E-1,-2.7620652E-1,-2.3851128E-1,-2.0261915E-1,-1.6760385E-1,-1.3424027E-1,-1.0170881E-1,-7.085274E-2,-4.077913E-2,-1.2236007E-2,1.5559502E-2,4.190028E-2,7.56178E-2,1.0750425E-1,1.3762678E-1,1.7266646E-1,2.0571804E-1,2.3605761E-1,2.6994243E-1,3.0084923E-1,3.3297145E-1,3.6536396E-1,3.959275E-1,4.260622E-1,4.5558664E-1,4.8527497E-1,-1.4773569E-1,-1.4318177E-1,-1.3866735E-1,-1.3421737E-1,-1.298064E-1,-1.2545866E-1,-1.21149465E-1,-1.1690227E-1,-1.12753965E-1,-1.08605705E-1,-1.04493834E-1,-1.00442834E-1,-9.642776E-2,-9.247239E-2,-8.66307E-2,-7.900039E-2,-7.3417835E-2,-6.973981E-2,-6.428657E-2,-5.7196844E-2,-5.1977467E-2,-4.8562773E-2,-4.351864E-2,-3.692417E-2,-3.2100335E-2,-2.8935501E-2,-2.4263289E-2,-1.817126E-2,-1.3715748E-2,-1.0785774E-2,-6.449886E-3,-8.169334E-4,3.3385989E-3,6.044269E-3,1.0007163E-2,1.5203663E-2,2.0259976E-2,2.5178693E-2,2.996038E-2,3.460756E-2,3.9124697E-2,4.351423E-2,4.777858E-2,5.3901054E-2,5.9844058E-2,6.363731E-2,6.73285E-2,7.26373E-2,7.7793956E-2,8.265132E-2,8.7359235E-2,9.177481E-2,9.73736E-2,1.0259505E-1,1.0744859E-1,1.11944795E-1,1.16095364E-1,1.20768376E-1,1.2579122E-1,1.3015874E-1,1.3445118E-1,1.3894078E-1,1.4334054E-1,1.4775744E-1],"categories":[],"categories_nodes":[],"categories_segments":[],"categories_sizes":[],"default_left":[0,0,0,0,0,0,0,0,0,0,0,0,0,0,0,0,0,0,0,0,0,0,0,0,0,0,0,0,0,0,0,0,0,0,0,0,0,0,0,0,0,0,0,0,0,0,0,0,0,0,0,0,0,0,0,0,0,0,0,0,0,0,0,0,0,0,0,0,0,0,0,0,0,0,0,0,0,0,0,0,0,0,0,0,0,0,0,0,0,0,0,0,0,0,0,0,0,0,0,0,0,0,0,0,0,0,0,0,0,0,0,0,0,0,0,0,0,0,0,0,0,0,0,0,0,0,0],"id":0,"left_children":[1,3,5,7,9,11,13,15,17,19,21,23,25,27,29,31,33,35,37,39,41,43,45,47,49,51,53,55,57,59,61,63,65,67,69,71,73,75,77,79,81,83,85,87,89,91,93,95,97,99,101,103,105,107,109,111,113,115,117,119,121,123,125,-1,-1,-1,-1,-1,-1,-1,-1,-1,-1,-1,-1,-1,-1,-1,-1,-1,-1,-1,-1,-1,-1,-1,-1,-1,-1,-1,-1,-1,-1,-1,-1,-1,-1,-1,-1,-1,-1,-1,-1,-1,-1,-1,-1,-1,-1,-1,-1,-1,-1,-1,-1,-1,-1,-1,-1,-1,-1,-1,-1,-1,-1,-1,-1],"loss_changes":[5.2494944E5,6.8221875E4,6.3087594E4,8.1E3,8.892436E3,7.905832E3,7.8333438E3,8.472969E2,1.1694375E3,1.3934141E3,8.789717E2,8.216826E2,1.1677031E3,1.0646562E3,8.990156E2,1.13328125E2,9.858594E1,8.561328E1,2.175E2,1.7467578E2,1.4022949E2,1.1105298E2,8.794388E1,6.913815E1,1.3605957E2,1.757666E2,1.1400195E2,1.2364453E2,1.4184375E2,1.14640625E2,1.096875E2,1.4457031E1,1.35E1,1.2609375E1,1.17578125E1,1.096875E1,1.0224609E1,9.527344E0,6.9021484E1,7.6816406E0,5.538867E1,6.1660156E0,4.4584473E1,4.9211426E0,3.5162354E1,3.9109192E0,2.7800522E1,3.080265E0,2.1824402E1,1.8503784E1,1.5598633E1,1.313623E1,3.2161133E1,8.447266E0,2.0921875E1,1.6009766E1,1.2003906E1,2.200586E1,1.3988281E1,1.5371094E1,1.2714844E1,1.3871094E1,1.31640625E1,0E0,0E0,0E0,0E0,0E0,0E0,0E0,0E0,0E0,0E0,0E0,0E0,0E0,0E0,0E0,0E0,0E0,0E0,0E0,0E0,0E0,0E0,0E0,0E0,0E0,0E0,0E0,0E0,0E0,0E0,0E0,0E0,0E0,0E0,0E0,0E0,0E0,0E0,0E0,0E0,0E0,0E0,0E0,0E0,0E0,0E0,0E0,0E0,0E0,0E0,0E0,0E0,0E0,0E0,0E0,0E0,0E0,0E0,0E0,0E0,0E0,0E0,0E0,0E0],"parents":[2147483647,0,0,1,1,2,2,3,3,4,4,5,5,6,6,7,7,8,8,9,9,10,10,11,11,12,12,13,13,14,14,15,15,16,16,17,17,18,18,19,19,20,20,21,21,22,22,23,23,24,24,25,25,26,26,27,27,28,28,29,29,30,30,31,31,32,32,33,33,34,34,35,35,36,36,37,37,38,38,39,39,40,40,41,41,42,42,43,43,44,44,45,45,46,46,47,47,48,48,49,49,50,50,51,51,52,52,53,53,54,54,55,55,56,56,57,57,58,58,59,59,60,60,61,61,62,62],"right_children":[2,4,6,8,10,12,14,16,18,20,22,24,26,28,30,32,34,36,38,40,42,44,46,48,50,52,54,56,58,60,62,64,66,68,70,72,74,76,78,80,82,84,86,88,90,92,94,96,98,100,102,104,106,108,110,112,114,116,118,120,122,124,126,-1,-1,-1,-1,-1,-1,-1,-1,-1,-1,-1,-1,-1,-1,-1,-1,-1,-1,-1,-1,-1,-1,-1,-1,-1,-1,-1,-1,-1,-1,-1,-1,-1,-1,-1,-1,-1,-1,-1,-1,-1,-1,-1,-1,-1,-1,-1,-1,-1,-1,-1,-1,-1,-1,-1,-1,-1,-1,-1,-1,-1,-1,-1,-1],"split_conditions":[5.3E1,4.1E1,7E1,3.6E1,4.7E1,6E1,8.4E1,3.4E1,3.8E1,4.4E1,5E1,5.6E1,6.5E1,7.6E1,9.5E1,3.3E1,3.5E1,3.7E1,3.9E1,4.2E1,4.5E1,4.8E1,5.1E1,5.4E1,5.8E1,6.2E1,6.7E1,7.3E1,8E1,8.9E1,1.04E2,5.9E1,6E1,6.1E1,6.2E1,6.2E1,6.3E1,6.4E1,4E1,6.6E1,4.3E1,6.9E1,4.6E1,7.1E1,4.9E1,7.3E1,5.2E1,7.6E1,5.5E1,5.7E1,5.9E1,6.1E1,6.3E1,6.6E1,6.8E1,7.1E1,7.4E1,7.8E1,8.2E1,8.6E1,9.2E1,9.9E1,1.11E2,-1.4773569E-1,-1.4318177E-1,-1.3866735E-1,-1.3421737E-1,-1.298064E-1,-1.2545866E-1,-1.21149465E-1,-1.1690227E-1,-1.12753965E-1,-1.08605705E-1,-1.04493834E-1,-1.00442834E-1,-9.642776E-2,-9.247239E-2,-8.66307E-2,-7.900039E-2,-7.3417835E-2,-6.973981E-2,-6.428657E-2,-5.7196844E-2,-5.1977467E-2,-4.8562773E-2,-4.351864E-2,-3.692417E-2,-3.2100335E-2,-2.8935501E-2,-2.4263289E-2,-1.817126E-2,-1.3715748E-2,-1.0785774E-2,-6.449886E-3,-8.169334E-4,3.3385989E-3,6.044269E-3,1.0007163E-2,1.5203663E-2,2.0259976E-2,2.5178693E-2,2.996038E-2,3.460756E-2,3.9124697E-2,4.351423E-2,4.777858E-2,5.3901054E-2,5.9844058E-2,6.363731E-2,6.73285E-2,7.26373E-2,7.7793956E-2,8.265132E-2,8.7359235E-2,9.177481E-2,9.73736E-2,1.0259505E-1,1.0744859E-1,1.11944795E-1,1.16095364E-1,1.20768376E-1,1.2579122E-1,1.3015874E-1,1.3445118E-1,1.3894078E-1,1.4334054E-1,1.4775744E-1],"split_indices":[0,0,0,0,0,0,0,0,0,0,0,0,0,0,0,0,0,0,0,0,0,0,0,0,0,0,0,0,0,0,0,1,1,1,1,1,1,1,0,1,0,1,0,1,0,1,0,1,0,0,0,0,0,0,0,0,0,0,0,0,0,0,0,0,0,0,0,0,0,0,0,0,0,0,0,0,0,0,0,0,0,0,0,0,0,0,0,0,0,0,0,0,0,0,0,0,0,0,0,0,0,0,0,0,0,0,0,0,0,0,0,0,0,0,0,0,0,0,0,0,0,0,0,0,0,0,0],"split_type":[0,0,0,0,0,0,0,0,0,0,0,0,0,0,0,0,0,0,0,0,0,0,0,0,0,0,0,0,0,0,0,0,0,0,0,0,0,0,0,0,0,0,0,0,0,0,0,0,0,0,0,0,0,0,0,0,0,0,0,0,0,0,0,0,0,0,0,0,0,0,0,0,0,0,0,0,0,0,0,0,0,0,0,0,0,0,0,0,0,0,0,0,0,0,0,0,0,0,0,0,0,0,0,0,0,0,0,0,0,0,0,0,0,0,0,0,0,0,0,0,0,0,0,0,0,0,0],"sum_hessian":[8.400631E6,4.255261E6,4.14537E6,2.093667E6,2.161594E6,2.076744E6,2.068626E6,9.85617E5,1.10805E6,1.163603E6,9.97991E5,9.78294E5,1.09845E6,1.063517E6,1.005109E6,5.04261E5,4.81356E5,4.59199E5,6.48851E5,6.03044E5,5.60559E5,5.18427E5,4.79564E5,4.42559E5,5.35735E5,5.8871E5,5.0974E5,5.19277E5,5.4424E5,5.06305E5,4.98804E5,2.55041E5,2.4922E5,2.43494E5,2.37862E5,2.32323E5,2.26876E5,2.2152E5,4.27331E5,2.05988E5,3.97056E5,1.91239E5,3.6932E5,1.77246E5,3.41181E5,1.64093E5,3.15471E5,1.51531E5,2.91028E5,2.75471E5,2.60264E5,2.45835E5,3.42875E5,2.12441E5,2.97299E5,2.72012E5,2.47265E5,2.92428E5,2.51812E5,2.61695E5,2.4461E5,2.51439E5,2.47365E5,1.26747E5,1.28294E5,1.24533E5,1.24687E5,1.22346E5,1.21148E5,1.20186E5,1.17676E5,1.14647E5,1.17676E5,1.12606E5,1.1427E5,1.10591E5,1.10929E5,2.16254E5,2.11077E5,1.0155E5,1.04438E5,2.00986E5,1.9607E5,9.6223E4,9.5016E4,1.87492E5,1.81828E5,8.8318E4,8.8928E4,1.72746E5,1.68435E5,8.1089E4,8.3004E4,1.59829E5,1.55642E5,7.7088E4,7.4443E4,1.47495E5,1.43533E5,1.39644E5,1.35827E5,1.3197E5,1.28294E5,1.24687E5,1.21148E5,1.17676E5,2.25199E5,1.07652E5,1.04789E5,1.01936E5,1.95363E5,9.3457E4,1.78555E5,8.514E4,1.62125E5,1.51435E5,1.40993E5,1.30831E5,1.20981E5,1.11475E5,1.5022E5,1.31089E5,1.13521E5,1.26869E5,1.2457E5,1.21839E5,1.25526E5],"tree_param":{"num_deleted":"0","num_feature":"30","num_nodes":"127","size_leaf_vector":"0"}},{"base_weights":[-4.291508E-8,-1.7271134E-1,1.7728972E-1,-2.6277122E-1,-8.548147E-2,9.1103144E-2,2.6381445E-1,-3.089365E-1,-2.2170669E-1,-1.2706135E-1,-3.7001528E-2,4.5337707E-2,1.3186236E-1,2.1940292E-1,3.0571586E-1,-3.289912E-1,-2.8792688E-1,-2.4873999E-1,-2.0257455E-1,-1.5041614E-1,-1.0193627E-1,-5.6981854E-2,-1.54019585E-2,2.3017019E-2,6.377626E-2,1.0552918E-1,1.5213302E-1,1.956746E-1,2.3787369E-1,2.83402E-1,3.2781222E-1,-3.3937395E-1,-3.1836465E-1,-2.9783645E-1,-2.7778146E-1,-2.581919E-1,-2.3906006E-1,-2.203783E-1,-1.9334495E-1,-1.6695859E-1,-1.4183371E-1,-1.17323235E-1,-9.39684E-2,-7.119652E-2,-4.9597047E-2,-2.8545534E-2,-8.5652275E-3,1.0891725E-2,2.9330296E-2,5.293263E-2,7.525323E-2,9.6339054E-2,1.1526916E-1,1.4008155E-1,1.6524078E-1,1.845254E-1,2.0371005E-1,2.2697055E-1,2.504918E-1,2.7260455E-1,2.9489735E-1,3.154544E-1,3.380152E-1,-1.031394E-1,-9.968855E-2,-9.67947E-2,-9.342244E-2,-9.140508E-2,-8.810128E-2,-8.533514E-2,-8.210565E-2,-7.8664385E-2,-7.551075E-2,-7.288458E-2,-6.980428E-2,-6.724042E-2,-6.423211E-2,-6.064161E-2,-5.530039E-2,-5.1140394E-2,-4.833248E-2,-4.5000695E-2,-4.003787E-2,-3.6788885E-2,-3.4201514E-2,-3.0463124E-2,-2.5846975E-2,-2.225996E-2,-1.9850768E-2,-1.6984342E-2,-1.2719916E-2,-9.425178E-3,-7.204956E-3,-4.5149345E-3,-5.718526E-4,1.9696872E-3,4.0394315E-3,7.00504E-3,1.0642599E-2,1.41820265E-2,1.7625146E-2,2.097233E-2,2.4225382E-2,2.7387371E-2,3.0460063E-2,3.344512E-2,3.574993E-2,4.0815294E-2,4.45463E-2,4.811472E-2,5.261535E-2,5.4456014E-2,5.6286395E-2,5.947458E-2,6.197211E-2,6.626415E-2,7.004983E-2,7.357448E-2,7.684511E-2,7.9869516E-2,8.319642E-2,8.698081E-2,9.018293E-2,9.28507E-2,9.5953755E-2,9.94354E-2,1.03156656E-1],"categories":[],"categories_nodes":[],"categories_segments":[],"categories_sizes":[],"default_left":[0,0,0,0,0,0,0,0,0,0,0,0,0,0,0,0,0,0,0,0,0,0,0,0,0,0,0,0,0,0,0,0,0,0,0,0,0,0,0,0,0,0,0,0,0,0,0,0,0,0,0,0,0,0,0,0,0,0,0,0,0,0,0,0,0,0,0,0,0,0,0,0,0,0,0,0,0,0,0,0,0,0,0,0,0,0,0,0,0,0,0,0,0,0,0,0,0,0,0,0,0,0,0,0,0,0,0,0,0,0,0,0,0,0,0,0,0,0,0,0,0,0,0,0,0,0,0],"id":1,"left_children":[1,3,5,7,9,11,13,15,17,19,21,23,25,27,29,31,33,35,37,39,41,43,45,47,49,51,53,55,57,59,61,63,65,67,69,71,73,75,77,79,81,83,85,87,89,91,93,95,97,99,101,103,105,107,109,111,113,115,117,119,121,123,125,-1,-1,-1,-1,-1,-1,-1,-1,-1,-1,-1,-1,-1,-1,-1,-1,-1,-1,-1,-1,-1,-1,-1,-1,-1,-1,-1,-1,-1,-1,-1,-1,-1,-1,-1,-1,-1,-1,-1,-1,-1,-1,-1,-1,-1,-1,-1,-1,-1,-1,-1,-1,-1,-1,-1,-1,-1,-1,-1,-1,-1,-1,-1,-1],"loss_changes":[2.5722692E5,3.3428953E4,3.0913125E4,3.969E3,4.3573174E3,3.873877E3,3.8494531E3,4.151875E2,5.7303906E2,6.8277734E2,4.306991E2,4.0262695E2,5.863281E2,4.4008984E2,5.2471875E2,5.5527344E1,4.8308594E1,4.195117E1,1.0657617E2,8.559277E1,6.8714355E1,5.4417236E1,4.3093025E1,3.3877792E1,6.666943E1,4.275537E1,9.8021484E1,3.934375E1,7.762891E1,6.565234E1,6.732031E1,7.873047E0,7.328125E0,6.8554688E0,6.419922E0,5.9990234E0,5.5703125E0,5.169922E0,3.3822266E1,4.2021484E0,2.7140625E1,3.3532715E0,2.184668E1,2.6712646E0,1.7229553E1,2.1334686E0,1.3622362E1,1.6866531E0,1.0694E1,9.066956E0,7.6434326E0,6.4367676E0,3.4086914E0,1.0936035E1,1.4623535E1,1.6791992E0,3.9541016E0,1.1994141E1,7.703125E0,8.134766E0,7.1816406E0,6.2226562E0,1.11171875E1,0E0,0E0,0E0,0E0,0E0,0E0,0E0,0E0,0E0,0E0,0E0,0E0,0E0,0E0,0E0,0E0,0E0,0E0,0E0,0E0,0E0,0E0,0E0,0E0,0E0,0E0,0E0,0E0,0E0,0E0,0E0,0E0,0E0,0E0,0E0,0E0,0E0,0E0,0E0,0E0,0E0,0E0,0E0,0E0,0E0,0E0,0E0,0E0,0E0,0E0,0E0,0E0,0E0,0E0,0E0,0E0,0E0,0E0,0E0,0E0,0E0,0E0,0E0,0E0],"parents":[2147483647,0,0,1,1,2,2,3,3,4,4,5,5,6,6,7,7,8,8,9,9,10,10,11,11,12,12,13,13,14,14,15,15,16,16,17,17,18,18,19,19,20,20,21,21,22,22,23,23,24,24,25,25,26,26,27,27,28,28,29,29,30,30,31,31,32,32,33,33,34,34,35,35,36,36,37,37,38,38,39,39,40,40,41,41,42,42,43,43,44,44,45,45,46,46,47,47,48,48,49,49,50,50,51,51,52,52,53,53,54,54,55,55,56,56,57,57,58,58,59,59,60,60,61,61,62,62],"right_children":[2,4,6,8,10,12,14,16,18,20,22,24,26,28,30,32,34,36,38,40,42,44,46,48,50,52,54,56,58,60,62,64,66,68,70,72,74,76,78,80,82,84,86,88,90,92,94,96,98,100,102,104,106,108,110,112,114,116,118,120,122,124,126,-1,-1,-1,-1,-1,-1,-1,-1,-1,-1,-1,-1,-1,-1,-1,-1,-1,-1,-1,-1,-1,-1,-1,-1,-1,-1,-1,-1,-1,-1,-1,-1,-1,-1,-1,-1,-1,-1,-1,-1,-1,-1,-1,-1,-1,-1,-1,-1,-1,-1,-1,-1,-1,-1,-1,-1,-1,-1,-1,-1,-1,-1,-1,-1],"split_conditions":[5.3E1,4.1E1,7E1,3.6E1,4.7E1,6E1,8.3E1,3.4E1,3.8E1,4.4E1,5E1,5.6E1,6.4E1,7.5E1,9.4E1,3.3E1,3.5E1,3.7E1,3.9E1,4.2E1,4.5E1,4.8E1,5.1E1,5.4E1,5.8E1,6.2E1,6.7E1,7.2E1,7.9E1,8.8E1,1.02E2,6.8E1,6.9E1,5.3E1,5.4E1,7.1E1,7.2E1,7.3E1,4E1,7.5E1,4.3E1,6.2E1,4.6E1,7.9E1,4.9E1,8E1,5.2E1,6.9E1,5.5E1,5.7E1,5.9E1,6.1E1,6.3E1,6.6E1,6.9E1,7.1E1,7.3E1,7.7E1,8.1E1,8.5E1,9.1E1,9.7E1,1.09E2,-1.031394E-1,-9.968855E-2,-9.67947E-2,-9.342244E-2,-9.140508E-2,-8.810128E-2,-8.533514E-2,-8.210565E-2,-7.8664385E-2,-7.551075E-2,-7.288458E-2,-6.980428E-2,-6.724042E-2,-6.423211E-2,-6.064161E-2,-5.530039E-2,-5.1140394E-2,-4.833248E-2,-4.5000695E-2,-4.003787E-2,-3.6788885E-2,-3.4201514E-2,-3.0463124E-2,-2.5846975E-2,-2.225996E-2,-1.9850768E-2,-1.6984342E-2,-1.2719916E-2,-9.425178E-3,-7.204956E-3,-4.5149345E-3,-5.718526E-4,1.9696872E-3,4.0394315E-3,7.00504E-3,1.0642599E-2,1.41820265E-2,1.7625146E-2,2.097233E-2,2.4225382E-2,2.7387371E-2,3.0460063E-2,3.344512E-2,3.574993E-2,4.0815294E-2,4.45463E-2,4.811472E-2,5.261535E-2,5.4456014E-2,5.6286395E-2,5.947458E-2,6.197211E-2,6.626415E-2,7.004983E-2,7.357448E-2,7.684511E-2,7.9869516E-2,8.319642E-2,8.698081E-2,9.018293E-2,9.28507E-2,9.5953755E-2,9.94354E-2,1.03156656E-1],"split_indices":[0,0,0,0,0,0,0,0,0,0,0,0,0,0,0,0,0,0,0,0,0,0,0,0,0,0,0,0,0,0,0,1,1,1,1,1,1,1,0,1,0,1,0,1,0,1,0,1,0,0,0,0,0,0,0,0,0,0,0,0,0,0,0,0,0,0,0,0,0,0,0,0,0,0,0,0,0,0,0,0,0,0,0,0,0,0,0,0,0,0,0,0,0,0,0,0,0,0,0,0,0,0,0,0,0,0,0,0,0,0,0,0,0,0,0,0,0,0,0,0,0,0,0,0,0,0,0],"split_type":[0,0,0,0,0,0,0,0,0,0,0,0,0,0,0,0,0,0,0,0,0,0,0,0,0,0,0,0,0,0,0,0,0,0,0,0,0,0,0,0,0,0,0,0,0,0,0,0,0,0,0,0,0,0,0,0,0,0,0,0,0,0,0,0,0,0,0,0,0,0,0,0,0,0,0,0,0,0,0,0,0,0,0,0,0,0,0,0,0,0,0,0,0,0,0,0,0,0,0,0,0,0,0,0,0,0,0,0,0,0,0,0,0,0,0,0,0,0,0,0,0,0,0,0,0,0,0],"sum_hessian":[8.400631E6,4.255261E6,4.14537E6,2.093667E6,2.161594E6,2.076744E6,2.068626E6,9.85617E5,1.10805E6,1.163603E6,9.97991E5,9.78294E5,1.09845E6,1.004237E6,1.064389E6,5.04261E5,4.81356E5,4.59199E5,6.48851E5,6.03044E5,5.60559E5,5.18427E5,4.79564E5,4.42559E5,5.35735E5,4.77781E5,6.20669E5,4.39565E5,5.64672E5,5.29595E5,5.34794E5,2.55041E5,2.4922E5,2.43494E5,2.37862E5,2.32323E5,2.26876E5,2.2152E5,4.27331E5,2.05988E5,3.97056E5,1.91239E5,3.6932E5,1.77246E5,3.41181E5,1.64093E5,3.15471E5,1.51531E5,2.91028E5,2.75471E5,2.60264E5,2.45835E5,2.31946E5,3.2337E5,2.97299E5,1.84121E5,2.55444E5,3.02932E5,2.6174E5,2.731E5,2.56495E5,2.41871E5,2.92923E5,1.56922E5,9.8119E4,1.54204E5,9.5016E4,9.2074E4,1.5142E5,9.0478E4,1.47384E5,1.43395E5,8.8928E4,1.40931E5,8.5945E4,1.38516E5,8.3004E4,2.16254E5,2.11077E5,1.28736E5,7.7252E4,2.00986E5,1.9607E5,7.3563E4,1.17676E5,1.87492E5,1.81828E5,1.1095E5,6.6296E4,1.72746E5,1.68435E5,1.00416E5,6.3677E4,1.59829E5,1.55642E5,5.6515E4,9.5016E4,1.47495E5,1.43533E5,1.39644E5,1.35827E5,1.3197E5,1.28294E5,1.24687E5,1.21148E5,1.17676E5,1.1427E5,2.18581E5,1.04789E5,2.01031E5,9.6268E4,9.3457E4,9.0664E4,8.7891E4,1.67553E5,1.56751E5,1.46181E5,1.35875E5,1.25865E5,1.16183E5,1.56917E5,1.373E5,1.19195E5,1.02719E5,1.39152E5,1.37945E5,1.54978E5],"tree_param":{"num_deleted":"0","num_feature":"30","num_nodes":"127","size_leaf_vector":"0"}},{"base_weights":[-3.1164966E-8,-1.20898336E-1,1.241032E-1,-1.8394046E-1,-5.9837215E-2,6.37724E-2,1.846707E-1,-2.162563E-1,-1.5519516E-1,-8.8943206E-2,-2.5901165E-2,3.1736504E-2,9.230393E-2,1.5358256E-1,2.1400179E-1,-2.3029462E-1,-2.0154953E-1,-1.7411864E-1,-1.4180256E-1,-1.052916E-1,-7.135561E-2,-3.9887436E-2,-1.0781421E-2,1.6111976E-2,4.4643536E-2,7.724074E-2,1.0970056E-1,1.3939987E-1,1.6876853E-1,1.9720048E-1,2.2843081E-1,-2.3756254E-1,-2.2285601E-1,-2.0848624E-1,-1.9444771E-1,-1.8073499E-1,-1.6734266E-1,-1.542654E-1,-1.3534173E-1,-1.1687148E-1,-9.928381E-2,-8.212664E-2,-6.5778024E-2,-4.983781E-2,-3.471801E-2,-1.9981982E-2,-5.995679E-3,7.6242597E-3,2.0531274E-2,3.705295E-2,5.2677456E-2,6.743757E-2,8.426922E-2,1.0382484E-1,1.1915516E-1,1.2916839E-1,1.4502023E-1,1.6105662E-1,1.7534482E-1,1.8901989E-1,2.0398957E-1,2.18996E-1,2.3599786E-1,-7.326715E-2,-7.0316315E-2,-6.8808176E-2,-6.591859E-2,-6.3471034E-2,-6.0658116E-2,-5.922667E-2,-5.6478344E-2,-5.600464E-2,-5.3339243E-2,-5.194389E-2,-4.9334843E-2,-4.8050493E-2,-4.5459483E-2,-4.254763E-2,-3.8686834E-2,-3.667718E-2,-3.429167E-2,-3.161552E-2,-2.8026775E-2,-2.5346804E-2,-2.3128169E-2,-2.1456191E-2,-1.810792E-2,-1.6367637E-2,-1.42953945E-2,-1.196913E-2,-8.88511E-3,-7.2721303E-3,-5.3822612E-3,-3.2479465E-3,-3.9425318E-4,1.7199472E-3,3.4726243E-3,4.811976E-3,7.4457163E-3,9.867702E-3,1.2360505E-2,1.4602714E-2,1.6959095E-2,1.9124761E-2,2.135032E-2,2.4206618E-2,2.7526515E-2,2.9646527E-2,3.192891E-2,3.4692764E-2,3.683091E-2,3.790461E-2,3.9568186E-2,4.2089254E-2,4.5017935E-2,4.6953905E-2,4.9035024E-2,5.15023E-2,5.3791758E-2,5.5908866E-2,5.757207E-2,6.0110282E-2,6.2444825E-2,6.444884E-2,6.661797E-2,6.9894984E-2,7.314799E-2],"categories":[],"categories_nodes":[],"categories_segments":[],"categories_sizes":[],"default_left":[0,0,0,0,0,0,0,0,0,0,0,0,0,0,0,0,0,0,0,0,0,0,0,0,0,0,0,0,0,0,0,0,0,0,0,0,0,0,0,0,0,0,0,0,0,0,0,0,0,0,0,0,0,0,0,0,0,0,0,0,0,0,0,0,0,0,0,0,0,0,0,0,0,0,0,0,0,0,0,0,0,0,0,0,0,0,0,0,0,0,0,0,0,0,0,0,0,0,0,0,0,0,0,0,0,0,0,0,0,0,0,0,0,0,0,0,0,0,0,0,0,0,0,0,0,0,0],"id":2,"left_children":[1,3,5,7,9,11,13,15,17,19,21,23,25,27,29,31,33,35,37,39,41,43,45,47,49,51,53,55,57,59,61,63,65,67,69,71,73,75,77,79,81,83,85,87,89,91,93,95,97,99,101,103,105,107,109,111,113,115,117,119,121,123,125,-1,-1,-1,-1,-1,-1,-1,-1,-1,-1,-1,-1,-1,-1,-1,-1,-1,-1,-1,-1,-1,-1,-1,-1,-1,-1,-1,-1,-1,-1,-1,-1,-1,-1,-1,-1,-1,-1,-1,-1,-1,-1,-1,-1,-1,-1,-1,-1,-1,-1,-1,-1,-1,-1,-1,-1,-1,-1,-1,-1,-1,-1,-1,-1],"loss_changes":[1.26042016E5,1.6380297E4,1.5147527E4,1.9448359E3,2.1350972E3,1.8982129E3,1.8862422E3,2.0344531E2,2.8079297E2,3.3456152E2,2.1104382E2,1.9728839E2,2.8783887E2,2.1626562E2,2.579922E2,2.7207031E1,2.3673828E1,2.0555664E1,5.2225586E1,4.1941895E1,3.3671143E1,2.6664978E1,2.1115856E1,1.6600151E1,3.2668457E1,4.0557373E1,2.8305176E1,2.9841797E1,2.4567383E1,2.727539E1,4.0828125E1,5.336914E0,5.0195312E0,4.6816406E0,4.3398438E0,4.025879E0,3.78125E0,3.550293E0,1.7673828E1,2.8327637E0,1.4189209E1,2.267456E0,1.1487061E1,1.8270264E0,9.012299E0,1.4258652E0,7.1345243E0,1.1321869E0,5.604225E0,4.7536316E0,4.01001E0,3.3776855E0,9.182617E0,4.086426E0,2.4663086E0,1.3984375E0,7.9555664E0,2.4023438E0,3.774414E0,1.6748047E0,4.006836E0,3.2060547E0,7.4414062E0,0E0,0E0,0E0,0E0,0E0,0E0,0E0,0E0,0E0,0E0,0E0,0E0,0E0,0E0,0E0,0E0,0E0,0E0,0E0,0E0,0E0,0E0,0E0,0E0,0E0,0E0,0E0,0E0,0E0,0E0,0E0,0E0,0E0,0E0,0E0,0E0,0E0,0E0,0E0,0E0,0E0,0E0,0E0,0E0,0E0,0E0,0E0,0E0,0E0,0E0,0E0,0E0,0E0,0E0,0E0,0E0,0E0,0E0,0E0,0E0,0E0,0E0,0E0,0E0],"parents":[2147483647,0,0,1,1,2,2,3,3,4,4,5,5,6,6,7,7,8,8,9,9,10,10,11,11,12,12,13,13,14,14,15,15,16,16,17,17,18,18,19,19,20,20,21,21,22,22,23,23,24,24,25,25,26,26,27,27,28,28,29,29,30,30,31,31,32,32,33,33,34,34,35,35,36,36,37,37,38,38,39,39,40,40,41,41,42,42,43,43,44,44,45,45,46,46,47,47,48,48,49,49,50,50,51,51,52,52,53,53,54,54,55,55,56,56,57,57,58,58,59,59,60,60,61,61,62,62],"right_children":[2,4,6,8,10,12,14,16,18,20,22,24,26,28,30,32,34,36,38,40,42,44,46,48,50,52,54,56,58,60,62,64,66,68,70,72,74,76,78,80,82,84,86,88,90,92,94,96,98,100,102,104,106,108,110,112,114,116,118,120,122,124,126,-1,-1,-1,-1,-1,-1,-1,-1,-1,-1,-1,-1,-1,-1,-1,-1,-1,-1,-1,-1,-1,-1,-1,-1,-1,-1,-1,-1,-1,-1,-1,-1,-1,-1,-1,-1,-1,-1,-1,-1,-1,-1,-1,-1,-1,-1,-1,-1,-1,-1,-1,-1,-1,-1,-1,-1,-1,-1,-1,-1,-1,-1,-1,-1],"split_conditions":[5.3E1,4.1E1,7E1,3.6E1,4.7E1,6E1,8.3E1,3.4E1,3.8E1,4.4E1,5E1,5.6E1,6.5E1,7.6E1,9.3E1,3.3E1,3.5E1,3.7E1,3.9E1,4.2E1,4.5E1,4.8E1,5.1E1,5.4E1,5.8E1,6.2E1,6.8E1,7.2E1,7.9E1,8.7E1,1.01E2,4.8E1,4.9E1,7.4E1,7.5E1,5.2E1,5.3E1,5.3E1,6.5E1,5.6E1,6.7E1,8.1E1,6.9E1,6.1E1,7.2E1,6.4E1,7.4E1,8.6E1,7.6E1,7.8E1,7.9E1,8.1E1,6.4E1,6.6E1,6.9E1,8.7E1,7.4E1,7.7E1,8.1E1,8.5E1,9E1,9.6E1,1.14E2,-7.326715E-2,-7.0316315E-2,-6.8808176E-2,-6.591859E-2,-6.3471034E-2,-6.0658116E-2,-5.922667E-2,-5.6478344E-2,-5.600464E-2,-5.3339243E-2,-5.194389E-2,-4.9334843E-2,-4.8050493E-2,-4.5459483E-2,-4.254763E-2,-3.8686834E-2,-3.667718E-2,-3.429167E-2,-3.161552E-2,-2.8026775E-2,-2.5346804E-2,-2.3128169E-2,-2.1456191E-2,-1.810792E-2,-1.6367637E-2,-1.42953945E-2,-1.196913E-2,-8.88511E-3,-7.2721303E-3,-5.3822612E-3,-3.2479465E-3,-3.9425318E-4,1.7199472E-3,3.4726243E-3,4.811976E-3,7.4457163E-3,9.867702E-3,1.2360505E-2,1.4602714E-2,1.6959095E-2,1.9124761E-2,2.135032E-2,2.4206618E-2,2.7526515E-2,2.9646527E-2,3.192891E-2,3.4692764E-2,3.683091E-2,3.790461E-2,3.9568186E-2,4.2089254E-2,4.5017935E-2,4.6953905E-2,4.9035024E-2,5.15023E-2,5.3791758E-2,5.5908866E-2,5.757207E-2,6.0110282E-2,6.2444825E-2,6.444884E-2,6.661797E-2,6.9894984E-2,7.314799E-2],"split_indices":[0,0,0,0,0,0,0,0,0,0,0,0,0,0,0,0,0,0,0,0,0,0,0,0,0,0,0,0,0,0,0,1,1,1,1,1,1,1,1,1,1,1,1,1,1,1,1,1,1,1,1,1,0,0,0,1,0,0,0,0,0,0,0,0,0,0,0,0,0,0,0,0,0,0,0,0,0,0,0,0,0,0,0,0,0,0,0,0,0,0,0,0,0,0,0,0,0,0,0,0,0,0,0,0,0,0,0,0,0,0,0,0,0,0,0,0,0,0,0,0,0,0,0,0,0,0,0],"split_type":[0,0,0,0,0,0,0,0,0,0,0,0,0,0,0,0,0,0,0,0,0,0,0,0,0,0,0,0,0,0,0,0,0,0,0,0,0,0,0,0,0,0,0,0,0,0,0,0,0,0,0,0,0,0,0,0,0,0,0,0,0,0,0,0,0,0,0,0,0,0,0,0,0,0,0,0,0,0,0,0,0,0,0,0,0,0,0,0,0,0,0,0,0,0,0,0,0,0,0,0,0,0,0,0,0,0,0,0,0,0,0,0,0,0,0,0,0,0,0,0,0,0,0,0,0,0,0],"sum_hessian":[8.400631E6,4.255261E6,4.14537E6,2.093667E6,2.161594E6,2.076744E6,2.068626E6,9.85617E5,1.10805E6,1.163603E6,9.97991E5,9.78294E5,1.09845E6,1.004237E6,1.064389E6,5.04261E5,4.81356E5,4.59199E5,6.48851E5,6.03044E5,5.60559E5,5.18427E5,4.79564E5,4.42559E5,5.35735E5,5.8871E5,5.0974E5,5.19277E5,4.8496E5,4.91775E5,5.72614E5,2.55041E5,2.4922E5,2.43494E5,2.37862E5,2.32323E5,2.26876E5,2.2152E5,4.27331E5,2.05988E5,3.97056E5,1.91239E5,3.6932E5,1.77246E5,3.41181E5,1.64093E5,3.15471E5,1.51531E5,2.91028E5,2.75471E5,2.60264E5,2.45835E5,3.42875E5,3.14377E5,1.95363E5,1.84121E5,3.35156E5,2.2322E5,2.6174E5,2.23044E5,2.68731E5,2.54868E5,3.17746E5,8.2296E4,1.72745E5,8.0896E4,1.68324E5,1.63388E5,8.0106E4,1.6061E5,7.7252E4,7.6792E4,1.55531E5,7.5456E4,1.5142E5,7.01E4,1.5142E5,2.12027E5,2.15304E5,6.6455E4,1.39533E5,1.94536E5,2.0252E5,1.30131E5,6.1108E4,1.79288E5,1.90032E5,5.6098E4,1.21148E5,1.69291E5,1.7189E5,5.3164E4,1.10929E5,1.55259E5,1.60212E5,1.02483E5,4.9048E4,1.42142E5,1.48886E5,1.37543E5,1.37928E5,1.27672E5,1.32592E5,1.23619E5,1.22216E5,2.31946E5,1.10929E5,1.07652E5,2.06725E5,9.9095E4,9.6268E4,9.0521E4,9.36E4,1.73031E5,1.62125E5,7.7039E4,1.46181E5,1.35875E5,1.25865E5,1.16183E5,1.06861E5,1.43679E5,1.25052E5,1.0803E5,1.46838E5,2.29431E5,8.8315E4],"tree_param":{"num_deleted":"0","num_feature":"30","num_nodes":"127","size_leaf_vector":"0"}},{"base_weights":[-2.298422E-8,-8.7858945E-2,8.374494E-2,-1.3327746E-1,-4.9291775E-2,3.955939E-2,1.2734313E-1,-1.5137993E-1,-1.1338584E-1,-7.019705E-2,-2.4943491E-2,1.6487276E-2,6.008371E-2,1.0562146E-1,1.4980175E-1,-1.6120678E-1,-1.4108516E-1,-1.218835E-1,-1.0447205E-1,-8.192887E-2,-5.758238E-2,-3.49927E-2,-1.4088781E-2,5.241187E-3,2.576761E-2,4.938041E-2,7.24539E-2,9.397367E-2,1.16674185E-1,1.3884468E-1,1.60652E-1,-1.6629434E-1,-1.5599973E-1,-1.4594088E-1,-1.3611388E-1,-1.2651496E-1,-1.171403E-1,-1.0941652E-1,-1.0144153E-1,-8.84561E-2,-7.854331E-2,-6.365994E-2,-5.443585E-2,-4.060332E-2,-3.207776E-2,-1.9284442E-2,-1.1387057E-2,4.448619E-4,7.7376477E-3,2.0300984E-2,3.1548094E-2,4.217621E-2,5.4541864E-2,6.8398565E-2,7.897677E-2,8.8880755E-2,9.956355E-2,1.1143126E-1,1.2274178E-1,1.3231443E-1,1.4359558E-1,1.5591492E-1,1.6815758E-1,-5.0509457E-2,-4.8119146E-2,-4.741301E-2,-4.5107614E-2,-4.548546E-2,-4.320439E-2,-4.250006E-2,-4.026422E-2,-3.852362E-2,-3.6359258E-2,-3.5687715E-2,-3.3574335E-2,-3.3497494E-2,-3.2108042E-2,-3.1699136E-2,-2.9165562E-2,-2.7619988E-2,-2.4765579E-2,-2.428753E-2,-2.197202E-2,-2.0108514E-2,-1.7446706E-2,-1.710939E-2,-1.5052269E-2,-1.3119315E-2,-1.0645211E-2,-1.0797486E-2,-8.888762E-3,-6.6468846E-3,-4.367872E-3,-4.000658E-3,-2.1570253E-3,-6.6187803E-4,1.4508909E-3,1.689501E-3,3.3017213E-3,5.3589316E-3,7.2868317E-3,8.767168E-3,1.0585156E-2,1.1988996E-2,1.3700918E-2,1.5692363E-2,1.7763121E-2,1.9493138E-2,2.1464352E-2,2.276737E-2,2.4579018E-2,2.6134811E-2,2.7771788E-2,2.9052159E-2,3.0611217E-2,3.2594293E-2,3.432462E-2,3.6051724E-2,3.765436E-2,3.9136354E-2,4.030061E-2,4.2077325E-2,4.3961763E-2,4.5584567E-2,4.7592487E-2,4.9987495E-2,5.1886063E-2],"categories":[],"categories_nodes":[],"categories_segments":[],"categories_sizes":[],"default_left":[0,0,0,0,0,0,0,0,0,0,0,0,0,0,0,0,0,0,0,0,0,0,0,0,0,0,0,0,0,0,0,0,0,0,0,0,0,0,0,0,0,0,0,0,0,0,0,0,0,0,0,0,0,0,0,0,0,0,0,0,0,0,0,0,0,0,0,0,0,0,0,0,0,0,0,0,0,0,0,0,0,0,0,0,0,0,0,0,0,0,0,0,0,0,0,0,0,0,0,0,0,0,0,0,0,0,0,0,0,0,0,0,0,0,0,0,0,0,0,0,0,0,0,0,0,0,0],"id":3,"left_children":[1,3,5,7,9,11,13,15,17,19,21,23,25,27,29,31,33,35,37,39,41,43,45,47,49,51,53,55,57,59,61,63,65,67,69,71,73,75,77,79,81,83,85,87,89,91,93,95,97,99,101,103,105,107,109,111,113,115,117,119,121,123,125,-1,-1,-1,-1,-1,-1,-1,-1,-1,-1,-1,-1,-1,-1,-1,-1,-1,-1,-1,-1,-1,-1,-1,-1,-1,-1,-1,-1,-1,-1,-1,-1,-1,-1,-1,-1,-1,-1,-1,-1,-1,-1,-1,-1,-1,-1,-1,-1,-1,-1,-1,-1,-1,-1,-1,-1,-1,-1,-1,-1,-1,-1,-1,-1],"loss_changes":[6.1809695E4,7.1811484E3,8.28551E3,6.778789E2,1.1284834E3,1.01153564E3,1.0561055E3,9.968945E1,6.792969E1,1.7652979E2,1.1171808E2,1.0495627E2,1.4967358E2,1.4166797E2,1.2651953E2,1.3332031E1,1.1599609E1,1.0072754E1,6.54834E0,1.3650879E1,1.0988525E1,8.696472E0,6.911125E0,5.44413E0,1.7410065E1,2.2534058E1,1.3866455E1,1.5245605E1,1.7950195E1,1.6411133E1,1.8988281E1,3.086914E0,2.849121E0,2.6411133E0,2.4902344E0,2.328125E0,2.1428223E0,8.7927246E-1,4.829834E0,4.4918213E0,5.206543E0,3.6314087E0,4.1862793E0,2.909851E0,3.3529968E0,2.2851982E0,2.648838E0,1.8120446E0,2.0579967E0,2.753006E0,2.3241577E0,1.953949E0,3.6795654E0,3.4797363E0,1.8256836E0,1.8188477E0,1.7109375E0,2.5039062E0,1.8498535E0,8.210449E-1,2.9916992E0,3.5219727E0,1.4916992E0,0E0,0E0,0E0,0E0,0E0,0E0,0E0,0E0,0E0,0E0,0E0,0E0,0E0,0E0,0E0,0E0,0E0,0E0,0E0,0E0,0E0,0E0,0E0,0E0,0E0,0E0,0E0,0E0,0E0,0E0,0E0,0E0,0E0,0E0,0E0,0E0,0E0,0E0,0E0,0E0,0E0,0E0,0E0,0E0,0E0,0E0,0E0,0E0,0E0,0E0,0E0,0E0,0E0,0E0,0E0,0E0,0E0,0E0,0E0,0E0,0E0,0E0,0E0,0E0],"parents":[2147483647,0,0,1,1,2,2,3,3,4,4,5,5,6,6,7,7,8,8,9,9,10,10,11,11,12,12,13,13,14,14,15,15,16,16,17,17,18,18,19,19,20,20,21,21,22,22,23,23,24,24,25,25,26,26,27,27,28,28,29,29,30,30,31,31,32,32,33,33,34,34,35,35,36,36,37,37,38,38,39,39,40,40,41,41,42,42,43,43,44,44,45,45,46,46,47,47,48,48,49,49,50,50,51,51,52,52,53,53,54,54,55,55,56,56,57,57,58,58,59,59,60,60,61,61,62,62],"right_children":[2,4,6,8,10,12,14,16,18,20,22,24,26,28,30,32,34,36,38,40,42,44,46,48,50,52,54,56,58,60,62,64,66,68,70,72,74,76,78,80,82,84,86,88,90,92,94,96,98,100,102,104,106,108,110,112,114,116,118,120,122,124,126,-1,-1,-1,-1,-1,-1,-1,-1,-1,-1,-1,-1,-1,-1,-1,-1,-1,-1,-1,-1,-1,-1,-1,-1,-1,-1,-1,-1,-1,-1,-1,-1,-1,-1,-1,-1,-1,-1,-1,-1,-1,-1,-1,-1,-1,-1,-1,-1,-1,-1,-1,-1,-1,-1,-1,-1,-1,-1,-1,-1,-1,-1,-1,-1],"split_conditions":[5.2E1,4E1,6.9E1,3.6E1,4.6E1,5.9E1,8.3E1,3.4E1,3.8E1,4.3E1,4.9E1,5.5E1,6.4E1,7.5E1,9.4E1,3.3E1,3.5E1,3.7E1,5.7E1,4.1E1,4.4E1,4.7E1,5E1,5.3E1,5.7E1,6.1E1,6.7E1,7.2E1,7.9E1,8.7E1,1.06E2,7.9E1,7.9E1,4.6E1,4.7E1,8.1E1,8.2E1,3.9E1,3.9E1,7.4E1,8E1,7.6E1,7.7E1,7.8E1,6.5E1,8E1,8.5E1,8.2E1,8.2E1,8.4E1,8.5E1,8.6E1,6.3E1,8.3E1,8.5E1,7.1E1,8.8E1,7.7E1,8.1E1,8.5E1,9E1,9.8E1,1.18E2,-5.0509457E-2,-4.8119146E-2,-4.741301E-2,-4.5107614E-2,-4.548546E-2,-4.320439E-2,-4.250006E-2,-4.026422E-2,-3.852362E-2,-3.6359258E-2,-3.5687715E-2,-3.3574335E-2,-3.3497494E-2,-3.2108042E-2,-3.1699136E-2,-2.9165562E-2,-2.7619988E-2,-2.4765579E-2,-2.428753E-2,-2.197202E-2,-2.0108514E-2,-1.7446706E-2,-1.710939E-2,-1.5052269E-2,-1.3119315E-2,-1.0645211E-2,-1.0797486E-2,-8.888762E-3,-6.6468846E-3,-4.367872E-3,-4.000658E-3,-2.1570253E-3,-6.6187803E-4,1.4508909E-3,1.689501E-3,3.3017213E-3,5.3589316E-3,7.2868317E-3,8.767168E-3,1.0585156E-2,1.1988996E-2,1.3700918E-2,1.5692363E-2,1.7763121E-2,1.9493138E-2,2.1464352E-2,2.276737E-2,2.4579018E-2,2.6134811E-2,2.7771788E-2,2.9052159E-2,3.0611217E-2,3.2594293E-2,3.432462E-2,3.6051724E-2,3.765436E-2,3.9136354E-2,4.030061E-2,4.2077325E-2,4.3961763E-2,4.5584567E-2,4.7592487E-2,4.9987495E-2,5.1886063E-2],"split_indices":[0,0,0,0,0,0,0,0,0,0,0,0,0,0,0,0,0,0,1,0,0,0,0,0,0,0,0,0,0,0,0,1,1,1,1,1,1,0,0,1,1,1,1,1,1,1,1,1,1,1,1,1,0,1,1,0,1,0,0,0,0,0,0,0,0,0,0,0,0,0,0,0,0,0,0,0,0,0,0,0,0,0,0,0,0,0,0,0,0,0,0,0,0,0,0,0,0,0,0,0,0,0,0,0,0,0,0,0,0,0,0,0,0,0,0,0,0,0,0,0,0,0,0,0,0,0,0],"split_type":[0,0,0,0,0,0,0,0,0,0,0,0,0,0,0,0,0,0,0,0,0,0,0,0,0,0,0,0,0,0,0,0,0,0,0,0,0,0,0,0,0,0,0,0,0,0,0,0,0,0,0,0,0,0,0,0,0,0,0,0,0,0,0,0,0,0,0,0,0,0,0,0,0,0,0,0,0,0,0,0,0,0,0,0,0,0,0,0,0,0,0,0,0,0,0,0,0,0,0,0,0,0,0,0,0,0,0,0,0,0,0,0,0,0,0,0,0,0,0,0,0,0,0,0,0,0,0],"sum_hessian":[8.400631E6,4.099619E6,4.301012E6,1.88259E6,2.217029E6,2.136118E6,2.164894E6,9.85617E5,8.96973E5,1.192852E6,1.024177E6,1.005642E6,1.130476E6,1.100505E6,1.064389E6,5.04261E5,4.81356E5,4.59199E5,4.37774E5,6.18051E5,5.74801E5,5.3182E5,4.92357E5,4.54668E5,5.50974E5,6.06075E5,5.24401E5,5.35833E5,5.64672E5,5.29595E5,5.34794E5,2.55041E5,2.4922E5,2.43494E5,2.37862E5,2.32323E5,2.26876E5,1.66342E5,2.71432E5,2.11077E5,4.06974E5,1.9607E5,3.78731E5,1.81828E5,3.49992E5,1.68435E5,3.23922E5,1.55642E5,2.99026E5,2.83177E5,2.67797E5,2.52981E5,3.53094E5,3.2337E5,2.01031E5,2.80389E5,2.55444E5,3.02932E5,2.6174E5,2.23044E5,3.06551E5,3.27878E5,2.06916E5,1.88745E5,6.6296E4,1.82924E5,6.6296E4,6.1666E4,1.81828E5,6.0616E4,1.77246E5,1.71215E5,6.1108E4,1.68286E5,5.859E4,8.5804E4,8.0538E4,1.35716E5,1.35716E5,1.30971E5,8.0106E4,2.7962E5,1.27354E5,1.21627E5,7.4443E4,2.35371E5,1.4336E5,1.12864E5,6.8964E4,1.34688E5,2.15304E5,1.04758E5,6.3677E4,2.21218E5,1.02704E5,9.7052E4,5.859E4,1.81846E5,1.1718E5,1.75755E5,1.07422E5,1.65093E5,1.02704E5,1.54885E5,9.8096E4,2.38824E5,1.1427E5,1.54998E5,1.68372E5,9.8327E4,1.02704E5,1.89725E5,9.0664E4,1.21617E5,1.33827E5,1.56751E5,1.46181E5,1.35875E5,1.25865E5,1.16183E5,1.06861E5,1.43679E5,1.62872E5,1.33598E5,1.9428E5,1.56834E5,5.0082E4],"tree_param":{"num_deleted":"0","num_feature":"30","num_nodes":"127","size_leaf_vector":"0"}},{"base_weights":[-2.3829765E-8,-6.150147E-2,5.8621645E-2,-9.329455E-2,-3.4504347E-2,2.7691657E-2,8.914048E-2,-1.0596632E-1,-7.9370394E-2,-4.913808E-2,-1.7460506E-2,1.1541127E-2,4.2058725E-2,7.301741E-2,1.0401374E-1,-1.1284512E-1,-9.875997E-2,-8.531876E-2,-7.313072E-2,-5.7350367E-2,-4.0307786E-2,-2.4494976E-2,-9.862182E-3,3.6688412E-3,1.8037379E-2,3.4566388E-2,5.0717894E-2,6.5781794E-2,8.0725625E-2,9.576518E-2,1.1198643E-1,-1.16406426E-1,-1.0920019E-1,-1.02158986E-1,-9.5280066E-2,-8.85608E-2,-8.199851E-2,-7.515135E-2,-6.7912966E-2,-6.0101744E-2,-5.164073E-2,-4.287778E-2,-3.499866E-2,-2.68558E-2,-1.9587578E-2,-1.2050681E-2,-5.308911E-3,1.649633E-3,7.874004E-3,1.4210725E-2,2.2083737E-2,2.9523453E-2,3.8179398E-2,4.6160046E-2,5.39754E-2,6.221674E-2,6.969473E-2,7.680328E-2,8.406072E-2,9.192004E-2,9.98391E-2,1.0845298E-1,1.17384076E-1,-3.655092E-2,-3.4431804E-2,-3.435124E-2,-3.2277454E-2,-3.1119702E-2,-2.9071385E-2,-2.9048784E-2,-2.7078561E-2,-2.803412E-2,-2.6112583E-2,-2.6035385E-2,-2.4149477E-2,-2.365872E-2,-2.2146126E-2,-2.1424334E-2,-1.932311E-2,-1.9521382E-2,-1.7468141E-2,-1.7085977E-2,-1.4658614E-2,-1.4311196E-2,-1.2356182E-2,-1.1980868E-2,-9.753391E-3,-9.354524E-3,-7.6376693E-3,-6.573072E-3,-4.5185527E-3,-4.811515E-3,-3.1696756E-3,-2.8506727E-3,-9.2544477E-4,-5.9895014E-4,9.155245E-4,1.2011103E-3,2.946474E-3,3.1623868E-3,4.8027756E-3,5.5453884E-3,7.1176393E-3,7.855081E-3,9.329671E-3,1.0571848E-2,1.250446E-2,1.3121553E-2,1.4596461E-2,1.5637014E-2,1.7038753E-2,1.7803004E-2,1.923841E-2,2.0052835E-2,2.1357099E-2,2.2344442E-2,2.3742283E-2,2.4576928E-2,2.583831E-2,2.690105E-2,2.8074479E-2,2.9454222E-2,3.0523105E-2,3.1841204E-2,3.3217493E-2,3.4814734E-2,3.6154497E-2],"categories":[],"categories_nodes":[],"categories_segments":[],"categories_sizes":[],"default_left":[0,0,0,0,0,0,0,0,0,0,0,0,0,0,0,0,0,0,0,0,0,0,0,0,0,0,0,0,0,0,0,0,0,0,0,0,0,0,0,0,0,0,0,0,0,0,0,0,0,0,0,0,0,0,0,0,0,0,0,0,0,0,0,0,0,0,0,0,0,0,0,0,0,0,0,0,0,0,0,0,0,0,0,0,0,0,0,0,0,0,0,0,0,0,0,0,0,0,0,0,0,0,0,0,0,0,0,0,0,0,0,0,0,0,0,0,0,0,0,0,0,0,0,0,0,0,0],"id":4,"left_children":[1,3,5,7,9,11,13,15,17,19,21,23,25,27,29,31,33,35,37,39,41,43,45,47,49,51,53,55,57,59,61,63,65,67,69,71,73,75,77,79,81,83,85,87,89,91,93,95,97,99,101,103,105,107,109,111,113,115,117,119,121,123,125,-1,-1,-1,-1,-1,-1,-1,-1,-1,-1,-1,-1,-1,-1,-1,-1,-1,-1,-1,-1,-1,-1,-1,-1,-1,-1,-1,-1,-1,-1,-1,-1,-1,-1,-1,-1,-1,-1,-1,-1,-1,-1,-1,-1,-1,-1,-1,-1,-1,-1,-1,-1,-1,-1,-1,-1,-1,-1,-1,-1,-1,-1,-1,-1],"loss_changes":[3.028695E4,3.518791E3,4.0599268E3,3.321621E2,5.529597E2,4.9565552E2,5.191406E2,4.884668E1,3.3286133E1,8.649951E1,5.474225E1,5.1428864E1,7.3340576E1,5.7932617E1,7.4043945E1,6.533203E0,5.684082E0,4.935791E0,4.6103516E0,9.706055E0,7.8413696E0,6.1608887E0,4.906204E0,3.8606257E0,8.530991E0,1.1041687E1,7.7834473E0,7.470703E0,6.573242E0,8.661133E0,1.0908691E1,2.2487793E0,2.1140137E0,2.0029297E0,1.840332E0,1.7159424E0,1.6220703E0,1.5527344E0,1.4943237E0,3.8815918E0,2.9641724E0,3.157959E0,2.3013916E0,2.1690674E0,1.8155441E0,1.9691048E0,1.4906039E0,1.5703715E0,1.111742E0,1.8686905E0,1.5819092E0,1.3303223E0,3.6339722E0,1.3183899E0,1.5944824E0,1.5360107E0,1.0847168E0,1.2486572E0,1.1938477E0,1.0561523E0,8.388672E-1,1.8088379E0,9.326172E-1,0E0,0E0,0E0,0E0,0E0,0E0,0E0,0E0,0E0,0E0,0E0,0E0,0E0,0E0,0E0,0E0,0E0,0E0,0E0,0E0,0E0,0E0,0E0,0E0,0E0,0E0,0E0,0E0,0E0,0E0,0E0,0E0,0E0,0E0,0E0,0E0,0E0,0E0,0E0,0E0,0E0,0E0,0E0,0E0,0E0,0E0,0E0,0E0,0E0,0E0,0E0,0E0,0E0,0E0,0E0,0E0,0E0,0E0,0E0,0E0,0E0,0E0,0E0,0E0],"parents":[2147483647,0,0,1,1,2,2,3,3,4,4,5,5,6,6,7,7,8,8,9,9,10,10,11,11,12,12,13,13,14,14,15,15,16,16,17,17,18,18,19,19,20,20,21,21,22,22,23,23,24,24,25,25,26,26,27,27,28,28,29,29,30,30,31,31,32,32,33,33,34,34,35,35,36,36,37,37,38,38,39,39,40,40,41,41,42,42,43,43,44,44,45,45,46,46,47,47,48,48,49,49,50,50,51,51,52,52,53,53,54,54,55,55,56,56,57,57,58,58,59,59,60,60,61,61,62,62],"right_children":[2,4,6,8,10,12,14,16,18,20,22,24,26,28,30,32,34,36,38,40,42,44,46,48,50,52,54,56,58,60,62,64,66,68,70,72,74,76,78,80,82,84,86,88,90,92,94,96,98,100,102,104,106,108,110,112,114,116,118,120,122,124,126,-1,-1,-1,-1,-1,-1,-1,-1,-1,-1,-1,-1,-1,-1,-1,-1,-1,-1,-1,-1,-1,-1,-1,-1,-1,-1,-1,-1,-1,-1,-1,-1,-1,-1,-1,-1,-1,-1,-1,-1,-1,-1,-1,-1,-1,-1,-1,-1,-1,-1,-1,-1,-1,-1,-1,-1,-1,-1,-1,-1,-1,-1,-1,-1],"split_conditions":[5.2E1,4E1,6.9E1,3.6E1,4.6E1,5.9E1,8.2E1,3.4E1,3.8E1,4.3E1,4.9E1,5.5E1,6.4E1,7.5E1,9.3E1,3.3E1,3.5E1,3.7E1,8.1E1,4.2E1,4.5E1,4.8E1,5.1E1,5.4E1,5.7E1,6.1E1,6.6E1,7.2E1,7.8E1,8.7E1,1.05E2,4.3E1,4.4E1,8.3E1,8.3E1,4.7E1,4.8E1,4.7E1,3.9E1,5.3E1,5.8E1,5.5E1,6E1,5.7E1,8.2E1,6.1E1,6.6E1,6.4E1,6.8E1,6.9E1,7E1,7.2E1,8.4E1,6.5E1,9E1,8.3E1,7.3E1,9.1E1,9.3E1,8.4E1,9E1,9.8E1,1.16E2,-3.655092E-2,-3.4431804E-2,-3.435124E-2,-3.2277454E-2,-3.1119702E-2,-2.9071385E-2,-2.9048784E-2,-2.7078561E-2,-2.803412E-2,-2.6112583E-2,-2.6035385E-2,-2.4149477E-2,-2.365872E-2,-2.2146126E-2,-2.1424334E-2,-1.932311E-2,-1.9521382E-2,-1.7468141E-2,-1.7085977E-2,-1.4658614E-2,-1.4311196E-2,-1.2356182E-2,-1.1980868E-2,-9.753391E-3,-9.354524E-3,-7.6376693E-3,-6.573072E-3,-4.5185527E-3,-4.811515E-3,-3.1696756E-3,-2.8506727E-3,-9.2544477E-4,-5.9895014E-4,9.155245E-4,1.2011103E-3,2.946474E-3,3.1623868E-3,4.8027756E-3,5.5453884E-3,7.1176393E-3,7.855081E-3,9.329671E-3,1.0571848E-2,1.250446E-2,1.3121553E-2,1.4596461E-2,1.5637014E-2,1.7038753E-2,1.7803004E-2,1.923841E-2,2.0052835E-2,2.1357099E-2,2.2344442E-2,2.3742283E-2,2.4576928E-2,2.583831E-2,2.690105E-2,2.8074479E-2,2.9454222E-2,3.0523105E-2,3.1841204E-2,3.3217493E-2,3.4814734E-2,3.6154497E-2],"split_indices":[0,0,0,0,0,0,0,0,0,0,0,0,0,0,0,0,0,0,1,0,0,0,0,0,0,0,0,0,0,0,0,1,1,1,1,1,1,1,0,1,1,1,1,1,1,1,1,1,1,1,1,1,1,0,1,1,0,1,1,0,0,0,0,0,0,0,0,0,0,0,0,0,0,0,0,0,0,0,0,0,0,0,0,0,0,0,0,0,0,0,0,0,0,0,0,0,0,0,0,0,0,0,0,0,0,0,0,0,0,0,0,0,0,0,0,0,0,0,0,0,0,0,0,0,0,0,0],"split_type":[0,0,0,0,0,0,0,0,0,0,0,0,0,0,0,0,0,0,0,0,0,0,0,0,0,0,0,0,0,0,0,0,0,0,0,0,0,0,0,0,0,0,0,0,0,0,0,0,0,0,0,0,0,0,0,0,0,0,0,0,0,0,0,0,0,0,0,0,0,0,0,0,0,0,0,0,0,0,0,0,0,0,0,0,0,0,0,0,0,0,0,0,0,0,0,0,0,0,0,0,0,0,0,0,0,0,0,0,0,0,0,0,0,0,0,0,0,0,0,0,0,0,0,0,0,0,0],"sum_hessian":[8.400631E6,4.099619E6,4.301012E6,1.88259E6,2.217029E6,2.136118E6,2.164894E6,9.85617E5,8.96973E5,1.192852E6,1.024177E6,1.005642E6,1.130476E6,1.038804E6,1.12609E6,5.04261E5,4.81356E5,4.59199E5,4.37774E5,6.18051E5,5.74801E5,5.3182E5,4.92357E5,4.54668E5,5.50974E5,6.06075E5,5.24401E5,5.35833E5,5.02971E5,5.53476E5,5.72614E5,2.55041E5,2.4922E5,2.43494E5,2.37862E5,2.32323E5,2.26876E5,3.15558E5,1.22216E5,4.17065E5,2.00986E5,3.87309E5,1.87492E5,3.59074E5,1.72746E5,3.32528E5,1.59829E5,3.07173E5,1.47495E5,2.83177E5,2.67797E5,2.52981E5,3.53094E5,2.18581E5,3.0582E5,2.80389E5,2.55444E5,2.31147E5,2.71824E5,2.84745E5,2.68731E5,3.46081E5,2.26533E5,5.8971E4,1.9607E5,5.7981E4,1.91239E5,1.8737E5,5.6124E4,1.81738E5,5.6124E4,5.5077E4,1.77246E5,5.4131E4,1.72745E5,8.3282E4,2.32276E5,6.1108E4,6.1108E4,1.14225E5,3.0284E5,6.9016E4,1.3197E5,1.00465E5,2.86844E5,6.2805E4,1.24687E5,8.7642E4,2.71432E5,1.14156E5,5.859E4,9.0232E4,2.42296E5,5.5391E4,1.04438E5,8.5315E4,2.21858E5,4.9376E4,9.8119E4,9.3145E4,1.90032E5,8.3893E4,1.83904E5,8.1091E4,1.7189E5,1.91961E5,1.61133E5,1.10929E5,1.07652E5,1.84614E5,1.21206E5,1.12017E5,1.68372E5,8.7891E4,1.67553E5,1.15983E5,1.15164E5,1.33648E5,1.38176E5,1.20981E5,1.63764E5,1.43679E5,1.25052E5,1.71418E5,1.74663E5,1.58843E5,6.769E4],"tree_param":{"num_deleted":"0","num_feature":"30","num_nodes":"127","size_leaf_vector":"0"}},{"base_weights":[-2.2262997E-8,-4.3051172E-2,4.1035276E-2,-6.314541E-2,-2.207825E-2,1.8330915E-2,6.1463498E-2,-7.417668E-2,-5.3332966E-2,-3.2359757E-2,-1.2222385E-2,8.078819E-3,2.8327143E-2,5.0234865E-2,7.280983E-2,-7.899186E-2,-6.913222E-2,-5.764662E-2,-4.6461385E-2,-3.8212888E-2,-2.8215531E-2,-1.7146528E-2,-6.9035417E-3,2.5681984E-3,1.2626212E-2,2.2855662E-2,3.331416E-2,4.438672E-2,5.5754557E-2,6.703582E-2,7.839074E-2,-8.148477E-2,-7.64404E-2,-7.151154E-2,-6.669628E-2,-6.1992787E-2,-5.539465E-2,-4.8375484E-2,-4.2444874E-2,-3.9376013E-2,-3.4069937E-2,-3.0014506E-2,-2.4499185E-2,-1.8799098E-2,-1.3711368E-2,-8.435491E-3,-3.716254E-3,1.1547481E-3,5.5118212E-3,9.947545E-3,1.5458672E-2,2.0666488E-2,2.517451E-2,3.0287495E-2,3.548216E-2,4.188561E-2,4.712596E-2,5.307728E-2,5.88427E-2,6.477417E-2,7.049818E-2,7.544322E-2,8.170579E-2,-2.4778498E-2,-2.304614E-2,-2.3252904E-2,-2.1544194E-2,-2.275847E-2,-2.1137701E-2,-2.1285504E-2,-1.969754E-2,-1.8900627E-2,-1.732331E-2,-1.6932104E-2,-1.5355277E-2,-1.5224283E-2,-1.3774983E-2,-1.3570096E-2,-1.1896645E-2,-1.2843116E-2,-1.1519913E-2,-1.113069E-2,-9.311045E-3,-9.3469275E-3,-7.78498E-3,-7.851566E-3,-6.0192724E-3,-6.006651E-3,-4.4556963E-3,-5.313502E-3,-3.6508115E-3,-2.8248373E-3,-1.4823342E-3,-2.231842E-3,-7.147497E-4,7.0431E-5,1.2975141E-3,1.2558859E-3,2.7075624E-3,2.6432357E-3,3.968439E-3,4.311841E-3,5.574471E-3,5.8917054E-3,7.083433E-3,6.597008E-3,8.073684E-3,8.137849E-3,9.686265E-3,9.8024625E-3,1.1082133E-2,1.2168499E-2,1.3337233E-2,1.37365395E-2,1.4876156E-2,1.5192953E-2,1.6307592E-2,1.7099105E-2,1.8249389E-2,1.883362E-2,1.9913007E-2,2.0715378E-2,2.1542076E-2,2.2388274E-2,2.3383329E-2,2.3749864E-2,2.4839005E-2],"categories":[],"categories_nodes":[],"categories_segments":[],"categories_sizes":[],"default_left":[0,0,0,0,0,0,0,0,0,0,0,0,0,0,0,0,0,0,0,0,0,0,0,0,0,0,0,0,0,0,0,0,0,0,0,0,0,0,0,0,0,0,0,0,0,0,0,0,0,0,0,0,0,0,0,0,0,0,0,0,0,0,0,0,0,0,0,0,0,0,0,0,0,0,0,0,0,0,0,0,0,0,0,0,0,0,0,0,0,0,0,0,0,0,0,0,0,0,0,0,0,0,0,0,0,0,0,0,0,0,0,0,0,0,0,0,0,0,0,0,0,0,0,0,0,0,0],"id":5,"left_children":[1,3,5,7,9,11,13,15,17,19,21,23,25,27,29,31,33,35,37,39,41,43,45,47,49,51,53,55,57,59,61,63,65,67,69,71,73,75,77,79,81,83,85,87,89,91,93,95,97,99,101,103,105,107,109,111,113,115,117,119,121,123,125,-1,-1,-1,-1,-1,-1,-1,-1,-1,-1,-1,-1,-1,-1,-1,-1,-1,-1,-1,-1,-1,-1,-1,-1,-1,-1,-1,-1,-1,-1,-1,-1,-1,-1,-1,-1,-1,-1,-1,-1,-1,-1,-1,-1,-1,-1,-1,-1,-1,-1,-1,-1,-1,-1,-1,-1,-1,-1,-1,-1,-1,-1,-1,-1],"loss_changes":[1.4840699E4,1.7277212E3,1.9948511E3,2.2662207E2,2.0326904E2,2.0875867E2,2.8843652E2,2.3935059E1,3.2841797E1,2.3813599E1,2.6823868E1,2.5200333E1,2.8141907E1,3.6729004E1,3.6282227E1,3.201416E0,2.7851562E0,6.6591797E0,3.2832642E0,1.9598389E0,3.8421326E0,3.0187988E0,2.4040356E0,1.8917193E0,4.180214E0,2.4960632E0,3.5395508E0,3.7833252E0,4.836792E0,4.32959E0,5.588867E0,1.3144531E0,1.2272949E0,1.1094971E0,1.0458984E0,9.925537E-1,1.9713135E0,1.68573E0,1.0711212E0,1.0637512E0,8.194504E-1,1.7968445E0,1.3903656E0,1.7330322E0,1.0653648E0,1.1394329E0,7.936759E-1,8.959043E-1,6.868682E-1,1.0559196E0,9.0784454E-1,7.650223E-1,1.3210297E0,1.4230194E0,1.2857666E0,9.815979E-1,8.658447E-1,9.7528076E-1,9.9420166E-1,1.0665283E0,4.091797E-1,6.125488E-1,7.3999023E-1,0E0,0E0,0E0,0E0,0E0,0E0,0E0,0E0,0E0,0E0,0E0,0E0,0E0,0E0,0E0,0E0,0E0,0E0,0E0,0E0,0E0,0E0,0E0,0E0,0E0,0E0,0E0,0E0,0E0,0E0,0E0,0E0,0E0,0E0,0E0,0E0,0E0,0E0,0E0,0E0,0E0,0E0,0E0,0E0,0E0,0E0,0E0,0E0,0E0,0E0,0E0,0E0,0E0,0E0,0E0,0E0,0E0,0E0,0E0,0E0,0E0,0E0,0E0,0E0],"parents":[2147483647,0,0,1,1,2,2,3,3,4,4,5,5,6,6,7,7,8,8,9,9,10,10,11,11,12,12,13,13,14,14,15,15,16,16,17,17,18,18,19,19,20,20,21,21,22,22,23,23,24,24,25,25,26,26,27,27,28,28,29,29,30,30,31,31,32,32,33,33,34,34,35,35,36,36,37,37,38,38,39,39,40,40,41,41,42,42,43,43,44,44,45,45,46,46,47,47,48,48,49,49,50,50,51,51,52,52,53,53,54,54,55,55,56,56,57,57,58,58,59,59,60,60,61,61,62,62],"right_children":[2,4,6,8,10,12,14,16,18,20,22,24,26,28,30,32,34,36,38,40,42,44,46,48,50,52,54,56,58,60,62,64,66,68,70,72,74,76,78,80,82,84,86,88,90,92,94,96,98,100,102,104,106,108,110,112,114,116,118,120,122,124,126,-1,-1,-1,-1,-1,-1,-1,-1,-1,-1,-1,-1,-1,-1,-1,-1,-1,-1,-1,-1,-1,-1,-1,-1,-1,-1,-1,-1,-1,-1,-1,-1,-1,-1,-1,-1,-1,-1,-1,-1,-1,-1,-1,-1,-1,-1,-1,-1,-1,-1,-1,-1,-1,-1,-1,-1,-1,-1,-1,-1,-1,-1,-1,-1],"split_conditions":[5.2E1,4.1E1,6.8E1,3.6E1,4.6E1,5.9E1,8.2E1,3.4E1,3.9E1,4.3E1,4.9E1,5.5E1,6.3E1,7.4E1,9.3E1,3.3E1,3.5E1,3.7E1,7.8E1,8.8E1,4.5E1,4.8E1,5.1E1,5.4E1,5.7E1,6.1E1,6.5E1,7.1E1,7.8E1,8.8E1,1.03E2,8.6E1,8.7E1,4.3E1,4.4E1,8.8E1,8.8E1,4E1,4E1,4.9E1,4.2E1,8.9E1,8.5E1,8.9E1,6E1,9.2E1,6.2E1,9.3E1,9E1,9.2E1,9.3E1,9.4E1,7.5E1,7.8E1,7.8E1,9.4E1,9.5E1,8.5E1,8E1,9.5E1,1E2,1E2,1.07E2,-2.4778498E-2,-2.304614E-2,-2.3252904E-2,-2.1544194E-2,-2.275847E-2,-2.1137701E-2,-2.1285504E-2,-1.969754E-2,-1.8900627E-2,-1.732331E-2,-1.6932104E-2,-1.5355277E-2,-1.5224283E-2,-1.3774983E-2,-1.3570096E-2,-1.1896645E-2,-1.2843116E-2,-1.1519913E-2,-1.113069E-2,-9.311045E-3,-9.3469275E-3,-7.78498E-3,-7.851566E-3,-6.0192724E-3,-6.006651E-3,-4.4556963E-3,-5.313502E-3,-3.6508115E-3,-2.8248373E-3,-1.4823342E-3,-2.231842E-3,-7.147497E-4,7.0431E-5,1.2975141E-3,1.2558859E-3,2.7075624E-3,2.6432357E-3,3.968439E-3,4.311841E-3,5.574471E-3,5.8917054E-3,7.083433E-3,6.597008E-3,8.073684E-3,8.137849E-3,9.686265E-3,9.8024625E-3,1.1082133E-2,1.2168499E-2,1.3337233E-2,1.37365395E-2,1.4876156E-2,1.5192953E-2,1.6307592E-2,1.7099105E-2,1.8249389E-2,1.883362E-2,1.9913007E-2,2.0715378E-2,2.1542076E-2,2.2388274E-2,2.3383329E-2,2.3749864E-2,2.4839005E-2],"split_indices":[0,0,0,0,0,0,0,0,0,0,0,0,0,0,0,0,0,0,1,1,0,0,0,0,0,0,0,0,0,0,0,1,1,1,1,1,1,0,0,1,0,1,1,1,1,1,1,1,1,1,1,1,1,1,1,1,1,1,0,1,1,0,0,0,0,0,0,0,0,0,0,0,0,0,0,0,0,0,0,0,0,0,0,0,0,0,0,0,0,0,0,0,0,0,0,0,0,0,0,0,0,0,0,0,0,0,0,0,0,0,0,0,0,0,0,0,0,0,0,0,0,0,0,0,0,0,0],"split_type":[0,0,0,0,0,0,0,0,0,0,0,0,0,0,0,0,0,0,0,0,0,0,0,0,0,0,0,0,0,0,0,0,0,0,0,0,0,0,0,0,0,0,0,0,0,0,0,0,0,0,0,0,0,0,0,0,0,0,0,0,0,0,0,0,0,0,0,0,0,0,0,0,0,0,0,0,0,0,0,0,0,0,0,0,0,0,0,0,0,0,0,0,0,0,0,0,0,0,0,0,0,0,0,0,0,0,0,0,0,0,0,0,0,0,0,0,0,0,0,0,0,0,0,0,0,0,0],"sum_hessian":[8.400631E6,4.099619E6,4.301012E6,2.093667E6,2.005952E6,2.037023E6,2.263989E6,9.85617E5,1.10805E6,9.81775E5,1.024177E6,1.005642E6,1.031381E6,1.137899E6,1.12609E6,5.04261E5,4.81356E5,6.80719E5,4.27331E5,4.06974E5,5.74801E5,5.3182E5,4.92357E5,4.54668E5,5.50974E5,4.91805E5,5.39576E5,5.52515E5,5.85384E5,5.53476E5,5.72614E5,2.55041E5,2.4922E5,2.43494E5,2.37862E5,2.32323E5,4.48396E5,2.89403E5,1.37928E5,3.17756E5,8.9218E4,3.87309E5,1.87492E5,3.59074E5,1.72746E5,3.32528E5,1.59829E5,3.07173E5,1.47495E5,2.83177E5,2.67797E5,2.52981E5,2.38824E5,2.25199E5,3.14377E5,2.8882E5,2.63695E5,3.1356E5,2.71824E5,3.34801E5,2.18675E5,3.03122E5,2.69492E5,2.05993E5,4.9048E4,2.0242E5,4.68E4,4.7424E4,1.9607E5,4.6623E4,1.91239E5,1.87714E5,4.4609E4,3.59178E5,8.9218E4,1.4729E5,1.42113E5,6.8964E4,6.8964E4,7.0326E4,2.4743E5,4.4609E4,4.4609E4,3.02357E5,8.4952E4,1.3614E5,5.1352E4,2.74122E5,8.4952E4,4.8059E4,1.24687E5,2.59658E5,7.287E4,4.2153E4,1.17676E5,2.38085E5,6.9088E4,1.07093E5,4.0402E4,2.10307E5,7.287E4,1.98709E5,6.9088E4,1.87553E5,6.5428E4,8.432E4,1.54504E5,8.7271E4,1.37928E5,1.07485E5,2.06892E5,1.90678E5,9.8142E4,1.70863E5,9.2832E4,1.08152E5,2.05408E5,1.40993E5,1.30831E5,1.49137E5,1.85664E5,1.0388E5,1.14795E5,2.28605E5,7.4517E4,8.1E4,1.88492E5],"tree_param":{"num_deleted":"0","num_feature":"30","num_nodes":"127","size_leaf_vector":"0"}},{"base_weights":[-1.6289084E-8,-2.9052375E-2,2.9822502E-2,-4.420193E-2,-1.4378877E-2,1.5309423E-2,4.439252E-2,-5.1923856E-2,-3.7333187E-2,-2.1410132E-2,-6.1808056E-3,7.6027117E-3,2.2173109E-2,3.7316423E-2,5.187977E-2,-5.5294484E-2,-4.839273E-2,-4.2101763E-2,-3.395835E-2,-2.5423743E-2,-1.709229E-2,-9.537983E-3,-2.5515566E-3,3.7610151E-3,1.077624E-2,1.8637376E-2,2.6256561E-2,3.3483043E-2,4.0973905E-2,4.855951E-2,5.5742647E-2,-5.9859414E-2,-5.4406486E-2,-4.9274117E-2,-4.4279464E-2,-4.621874E-2,-4.1275825E-2,-3.552454E-2,-3.0709915E-2,-2.8549282E-2,-2.3802182E-2,-2.0804834E-2,-1.6102757E-2,-1.0583675E-2,-6.7224023E-3,-5.660669E-3,-1.7866939E-3,8.0103095E-4,4.511689E-3,8.95537E-3,1.27034625E-2,1.6057462E-2,2.0487074E-2,2.4031496E-2,2.784644E-2,3.1845335E-2,3.5284527E-2,3.9257195E-2,4.2967353E-2,4.7252826E-2,5.0981585E-2,5.4230113E-2,5.7957824E-2,-1.8420255E-2,-1.7424356E-2,-1.6839255E-2,-1.580456E-2,-1.5282028E-2,-1.42679615E-2,-1.3765154E-2,-1.28022125E-2,-1.4247329E-2,-1.350888E-2,-1.2763844E-2,-1.2001586E-2,-1.1591984E-2,-1.0344395E-2,-1.0265003E-2,-8.67349E-3,-8.750835E-3,-7.579105E-3,-8.04115E-3,-6.6073416E-3,-6.650056E-3,-5.8894106E-3,-5.596175E-3,-4.4487114E-3,-3.4680318E-3,-2.5576188E-3,-2.9214146E-3,-1.5643475E-3,-2.0775606E-3,-1.4517917E-3,-8.557845E-4,1.0354617E-4,-3.316754E-5,5.3780375E-4,8.0444274E-4,1.628034E-3,1.8341719E-3,2.95838E-3,2.9718326E-3,4.0503037E-3,4.022795E-3,5.0505055E-3,5.697597E-3,7.0329234E-3,6.8789683E-3,8.0132745E-3,7.7035744E-3,8.6756935E-3,8.90922E-3,9.790471E-3,1.0290043E-2,1.1226645E-2,1.1447862E-2,1.2374235E-2,1.2556484E-2,1.3415816E-2,1.3637193E-2,1.4426354E-2,1.5015037E-2,1.5618057E-2,1.5932377E-2,1.6489284E-2,1.7180461E-2,1.8289255E-2],"categories":[],"categories_nodes":[],"categories_segments":[],"categories_sizes":[],"default_left":[0,0,0,0,0,0,0,0,0,0,0,0,0,0,0,0,0,0,0,0,0,0,0,0,0,0,0,0,0,0,0,0,0,0,0,0,0,0,0,0,0,0,0,0,0,0,0,0,0,0,0,0,0,0,0,0,0,0,0,0,0,0,0,0,0,0,0,0,0,0,0,0,0,0,0,0,0,0,0,0,0,0,0,0,0,0,0,0,0,0,0,0,0,0,0,0,0,0,0,0,0,0,0,0,0,0,0,0,0,0,0,0,0,0,0,0,0,0,0,0,0,0,0,0,0,0,0],"id":6,"left_children":[1,3,5,7,9,11,13,15,17,19,21,23,25,27,29,31,33,35,37,39,41,43,45,47,49,51,53,55,57,59,61,63,65,67,69,71,73,75,77,79,81,83,85,87,89,91,93,95,97,99,101,103,105,107,109,111,113,115,117,119,121,123,125,-1,-1,-1,-1,-1,-1,-1,-1,-1,-1,-1,-1,-1,-1,-1,-1,-1,-1,-1,-1,-1,-1,-1,-1,-1,-1,-1,-1,-1,-1,-1,-1,-1,-1,-1,-1,-1,-1,-1,-1,-1,-1,-1,-1,-1,-1,-1,-1,-1,-1,-1,-1,-1,-1,-1,-1,-1,-1,-1,-1,-1,-1,-1,-1],"loss_changes":[7.27843E3,9.459309E2,8.7656226E2,1.1104614E2,1.2460016E2,1.09852234E2,1.0959497E2,1.17282715E1,1.7830566E1,2.0164978E1,1.2159546E1,1.1927071E1,1.5858948E1,1.490979E1,1.2888672E1,2.0407715E0,1.7429199E0,1.5596313E0,3.3001099E0,3.0556946E0,2.0589905E0,1.5262985E0,1.1404166E0,9.8335695E-1,1.8799057E0,2.8090363E0,1.8025513E0,1.5309448E0,1.8607788E0,1.708252E0,1.5533447E0,2.215271E-1,1.2525635E0,1.1296997E0,2.1685791E-1,1.1393738E-1,6.156006E-1,1.4214478E0,1.3300934E0,4.1900635E-1,2.1181335E0,1.8810654E-1,1.4379196E0,7.596512E-1,6.3839865E-1,9.8308325E-2,8.7460184E-1,8.093497E-2,5.912428E-1,7.090244E-1,5.8052444E-1,5.0597E-1,1.5148773E0,6.2644196E-1,6.9052124E-1,4.6032715E-1,5.1901245E-1,6.3726807E-1,4.888916E-1,5.2423096E-1,1.876831E-1,2.2460938E-1,3.8726807E-1,0E0,0E0,0E0,0E0,0E0,0E0,0E0,0E0,0E0,0E0,0E0,0E0,0E0,0E0,0E0,0E0,0E0,0E0,0E0,0E0,0E0,0E0,0E0,0E0,0E0,0E0,0E0,0E0,0E0,0E0,0E0,0E0,0E0,0E0,0E0,0E0,0E0,0E0,0E0,0E0,0E0,0E0,0E0,0E0,0E0,0E0,0E0,0E0,0E0,0E0,0E0,0E0,0E0,0E0,0E0,0E0,0E0,0E0,0E0,0E0,0E0,0E0,0E0,0E0],"parents":[2147483647,0,0,1,1,2,2,3,3,4,4,5,5,6,6,7,7,8,8,9,9,10,10,11,11,12,12,13,13,14,14,15,15,16,16,17,17,18,18,19,19,20,20,21,21,22,22,23,23,24,24,25,25,26,26,27,27,28,28,29,29,30,30,31,31,32,32,33,33,34,34,35,35,36,36,37,37,38,38,39,39,40,40,41,41,42,42,43,43,44,44,45,45,46,46,47,47,48,48,49,49,50,50,51,51,52,52,53,53,54,54,55,55,56,56,57,57,58,58,59,59,60,60,61,61,62,62],"right_children":[2,4,6,8,10,12,14,16,18,20,22,24,26,28,30,32,34,36,38,40,42,44,46,48,50,52,54,56,58,60,62,64,66,68,70,72,74,76,78,80,82,84,86,88,90,92,94,96,98,100,102,104,106,108,110,112,114,116,118,120,122,124,126,-1,-1,-1,-1,-1,-1,-1,-1,-1,-1,-1,-1,-1,-1,-1,-1,-1,-1,-1,-1,-1,-1,-1,-1,-1,-1,-1,-1,-1,-1,-1,-1,-1,-1,-1,-1,-1,-1,-1,-1,-1,-1,-1,-1,-1,-1,-1,-1,-1,-1,-1,-1,-1,-1,-1,-1,-1,-1,-1,-1,-1,-1,-1,-1],"split_conditions":[5.3E1,4.1E1,7E1,3.6E1,4.7E1,6E1,8.4E1,3.4E1,3.8E1,4.4E1,5E1,5.6E1,6.5E1,7.6E1,9.6E1,4E1,8.9E1,4.4E1,4E1,4.2E1,5.4E1,8.7E1,5.9E1,6.2E1,5.8E1,6.2E1,6.7E1,7.3E1,8E1,9.1E1,1.07E2,3.3E1,3.3E1,3.5E1,3.5E1,4E1,3.7E1,5E1,5.6E1,9.4E1,6E1,4.9E1,4.5E1,4.9E1,4.8E1,5.4E1,5.2E1,5.8E1,5.4E1,6.6E1,6.7E1,6.9E1,9.1E1,9.5E1,7.9E1,7.9E1,9.8E1,9.8E1,9.9E1,8.6E1,1.04E2,1.06E2,1.2E2,-1.8420255E-2,-1.7424356E-2,-1.6839255E-2,-1.580456E-2,-1.5282028E-2,-1.42679615E-2,-1.3765154E-2,-1.28022125E-2,-1.4247329E-2,-1.350888E-2,-1.2763844E-2,-1.2001586E-2,-1.1591984E-2,-1.0344395E-2,-1.0265003E-2,-8.67349E-3,-8.750835E-3,-7.579105E-3,-8.04115E-3,-6.6073416E-3,-6.650056E-3,-5.8894106E-3,-5.596175E-3,-4.4487114E-3,-3.4680318E-3,-2.5576188E-3,-2.9214146E-3,-1.5643475E-3,-2.0775606E-3,-1.4517917E-3,-8.557845E-4,1.0354617E-4,-3.316754E-5,5.3780375E-4,8.0444274E-4,1.628034E-3,1.8341719E-3,2.95838E-3,2.9718326E-3,4.0503037E-3,4.022795E-3,5.0505055E-3,5.697597E-3,7.0329234E-3,6.8789683E-3,8.0132745E-3,7.7035744E-3,8.6756935E-3,8.90922E-3,9.790471E-3,1.0290043E-2,1.1226645E-2,1.1447862E-2,1.2374235E-2,1.2556484E-2,1.3415816E-2,1.3637193E-2,1.4426354E-2,1.5015037E-2,1.5618057E-2,1.5932377E-2,1.6489284E-2,1.7180461E-2,1.8289255E-2],"split_indices":[0,0,0,0,0,0,0,0,0,0,0,0,0,0,0,1,1,1,0,0,1,1,1,1,0,0,0,0,0,0,0,0,0,0,0,1,0,1,1,1,1,1,0,0,0,1,0,1,0,1,1,1,1,1,1,1,1,1,1,0,1,1,0,0,0,0,0,0,0,0,0,0,0,0,0,0,0,0,0,0,0,0,0,0,0,0,0,0,0,0,0,0,0,0,0,0,0,0,0,0,0,0,0,0,0,0,0,0,0,0,0,0,0,0,0,0,0,0,0,0,0,0,0,0,0,0,0],"split_type":[0,0,0,0,0,0,0,0,0,0,0,0,0,0,0,0,0,0,0,0,0,0,0,0,0,0,0,0,0,0,0,0,0,0,0,0,0,0,0,0,0,0,0,0,0,0,0,0,0,0,0,0,0,0,0,0,0,0,0,0,0,0,0,0,0,0,0,0,0,0,0,0,0,0,0,0,0,0,0,0,0,0,0,0,0,0,0,0,0,0,0,0,0,0,0,0,0,0,0,0,0,0,0,0,0,0,0,0,0,0,0,0,0,0,0,0,0,0,0,0,0,0,0,0,0,0,0],"sum_hessian":[8.400631E6,4.255261E6,4.14537E6,2.093667E6,2.161594E6,2.076744E6,2.068626E6,9.85617E5,1.10805E6,1.163603E6,9.97991E5,9.78294E5,1.09845E6,1.063517E6,1.005109E6,5.04261E5,4.81356E5,4.59199E5,6.48851E5,6.03044E5,5.60559E5,5.18427E5,4.79564E5,4.42559E5,5.35735E5,5.8871E5,5.0974E5,5.19277E5,5.4424E5,5.40525E5,4.64584E5,8.2107E4,4.22154E5,3.96404E5,8.4952E4,7.6721E4,3.82478E5,4.37774E5,2.11077E5,2.05988E5,3.97056E5,1.17963E5,4.42596E5,3.78027E5,1.404E5,9.4682E4,3.84882E5,8.9531E4,3.53028E5,2.75471E5,2.60264E5,2.45835E5,3.42875E5,2.12441E5,2.97299E5,2.72012E5,2.47265E5,2.92428E5,2.51812E5,3.5112E5,1.89405E5,2.76092E5,1.88492E5,4.3964E4,3.8143E4,2.11077E5,2.11077E5,2.01018E5,1.95386E5,4.2476E4,4.2476E4,3.7045E4,3.9676E4,1.91239E5,1.91239E5,1.0981E5,3.27964E5,7.1544E4,1.39533E5,1.73274E5,3.2714E4,1.47682E5,2.49374E5,5.4587E4,6.3376E4,1.47384E5,2.95212E5,2.56392E5,1.21635E5,4.68E4,9.36E4,3.728E4,5.7402E4,2.56588E5,1.28294E5,4.6649E4,4.2882E4,1.17676E5,2.35352E5,6.6595E4,2.08876E5,5.7744E4,2.0252E5,5.5803E4,1.90032E5,2.27711E5,1.15164E5,1.50553E5,6.1888E4,9.8411E4,1.98888E5,7.3124E4,1.98888E5,1.69313E5,7.7952E4,1.88492E5,1.03936E5,1.54036E5,9.7776E4,1.11475E5,2.39645E5,1.0166E5,8.7745E4,1.0922E5,1.66872E5,1.53338E5,3.5154E4],"tree_param":{"num_deleted":"0","num_feature":"30","num_nodes":"127","size_leaf_vector":"0"}},{"base_weights":[-1.0830156E-8,-2.033673E-2,2.087582E-2,-3.0941451E-2,-1.0065246E-2,1.071663E-2,3.107487E-2,-3.6346823E-2,-2.6133312E-2,-1.5924277E-2,-5.189701E-3,5.321916E-3,1.5521225E-2,2.6121583E-2,3.6315966E-2,-3.8706277E-2,-3.3875026E-2,-2.8360782E-2,-2.2584995E-2,-1.8882273E-2,-1.3829911E-2,-8.302286E-3,-2.635159E-3,2.6327146E-3,7.543398E-3,1.3046204E-2,1.8379651E-2,2.379883E-2,2.9086191E-2,3.3991758E-2,3.902001E-2,-4.0685453E-2,-3.7389778E-2,-3.5098914E-2,-3.19986E-2,-2.9471349E-2,-2.6058517E-2,-2.3499377E-2,-1.8663436E-2,-2.1289162E-2,-1.8222626E-2,-1.45188E-2,-1.0483977E-2,-8.948897E-3,-5.2445E-3,-4.2313198E-3,-9.5268874E-4,2.0979326E-3,5.1340056E-3,6.2687974E-3,8.892443E-3,1.1805725E-2,1.5048494E-2,1.7262971E-2,2.0176506E-2,2.2657901E-2,2.550252E-2,2.718587E-2,2.9895894E-2,3.267123E-2,3.5231013E-2,3.802828E-2,4.071936E-2,-1.2868068E-2,-1.1983843E-2,-1.1417942E-2,-1.0376591E-2,-1.13247335E-2,-1.0326849E-2,-9.815251E-3,-8.976731E-3,-9.371061E-3,-8.499487E-3,-8.0031175E-3,-6.812963E-3,-7.8704525E-3,-6.796043E-3,-5.982272E-3,-5.215652E-3,-6.7967027E-3,-6.126405E-3,-5.852669E-3,-5.080873E-3,-5.1676286E-3,-4.153858E-3,-3.4446854E-3,-2.5461225E-3,-3.217604E-3,-2.405554E-3,-1.8075831E-3,-1.1048405E-3,-2.1327068E-3,-1.0751539E-3,-5.882324E-4,5.9247995E-4,6.433461E-5,7.600893E-4,9.469295E-4,1.836814E-3,1.7059162E-3,2.6320373E-3,2.4995224E-3,3.3949555E-3,3.3172718E-3,4.3033063E-3,3.7345423E-3,4.792639E-3,4.45737E-3,5.3682704E-3,5.840717E-3,6.6887024E-3,6.6149686E-3,7.371402E-3,7.0718187E-3,7.827059E-3,7.898563E-3,8.45414E-3,8.634358E-3,9.219529E-3,9.516874E-3,1.0255742E-2,1.0180829E-2,1.0741837E-2,1.1104314E-2,1.1620645E-2,1.2092322E-2,1.3026134E-2],"categories":[],"categories_nodes":[],"categories_segments":[],"categories_sizes":[],"default_left":[0,0,0,0,0,0,0,0,0,0,0,0,0,0,0,0,0,0,0,0,0,0,0,0,0,0,0,0,0,0,0,0,0,0,0,0,0,0,0,0,0,0,0,0,0,0,0,0,0,0,0,0,0,0,0,0,0,0,0,0,0,0,0,0,0,0,0,0,0,0,0,0,0,0,0,0,0,0,0,0,0,0,0,0,0,0,0,0,0,0,0,0,0,0,0,0,0,0,0,0,0,0,0,0,0,0,0,0,0,0,0,0,0,0,0,0,0,0,0,0,0,0,0,0,0,0,0],"id":7,"left_children":[1,3,5,7,9,11,13,15,17,19,21,23,25,27,29,31,33,35,37,39,41,43,45,47,49,51,53,55,57,59,61,63,65,67,69,71,73,75,77,79,81,83,85,87,89,91,93,95,97,99,101,103,105,107,109,111,113,115,117,119,121,123,125,-1,-1,-1,-1,-1,-1,-1,-1,-1,-1,-1,-1,-1,-1,-1,-1,-1,-1,-1,-1,-1,-1,-1,-1,-1,-1,-1,-1,-1,-1,-1,-1,-1,-1,-1,-1,-1,-1,-1,-1,-1,-1,-1,-1,-1,-1,-1,-1,-1,-1,-1,-1,-1,-1,-1,-1,-1,-1,-1,-1,-1,-1,-1,-1],"loss_changes":[3.5664546E3,4.6350928E2,4.295183E2,5.4413086E1,6.1748E1,5.3827896E1,5.370215E1,5.7469482E0,8.75708E0,6.08197E0,9.380995E0,5.844326E0,7.7709656E0,7.322754E0,6.3154297E0,1.312439E0,1.1043091E0,1.7397461E0,1.5318909E0,6.4575195E-1,1.3247528E0,1.0514679E0,1.7401953E0,5.9197736E-1,9.2113876E-1,1.4620514E0,1.0224457E0,1.1585388E0,7.180786E-1,8.834839E-1,7.814331E-1,3.2711792E-1,5.670471E-1,5.206604E-1,2.8266907E-1,9.231262E-1,4.5822144E-1,8.01239E-1,1.3156891E-1,1.0334778E-1,5.2822113E-1,8.675232E-1,1.9555283E-1,7.254715E-1,1.1317277E-1,6.19555E-1,9.310546E-1,2.9920816E-1,1.5239763E-1,4.0179253E-1,3.5365295E-1,6.90258E-1,5.425644E-1,4.7703552E-1,2.9245758E-1,4.1496277E-1,2.7061462E-1,1.1829376E-1,3.043518E-1,3.7478638E-1,2.064209E-1,2.0895386E-1,1.8859863E-1,0E0,0E0,0E0,0E0,0E0,0E0,0E0,0E0,0E0,0E0,0E0,0E0,0E0,0E0,0E0,0E0,0E0,0E0,0E0,0E0,0E0,0E0,0E0,0E0,0E0,0E0,0E0,0E0,0E0,0E0,0E0,0E0,0E0,0E0,0E0,0E0,0E0,0E0,0E0,0E0,0E0,0E0,0E0,0E0,0E0,0E0,0E0,0E0,0E0,0E0,0E0,0E0,0E0,0E0,0E0,0E0,0E0,0E0,0E0,0E0,0E0,0E0,0E0,0E0],"parents":[2147483647,0,0,1,1,2,2,3,3,4,4,5,5,6,6,7,7,8,8,9,9,10,10,11,11,12,12,13,13,14,14,15,15,16,16,17,17,18,18,19,19,20,20,21,21,22,22,23,23,24,24,25,25,26,26,27,27,28,28,29,29,30,30,31,31,32,32,33,33,34,34,35,35,36,36,37,37,38,38,39,39,40,40,41,41,42,42,43,43,44,44,45,45,46,46,47,47,48,48,49,49,50,50,51,51,52,52,53,53,54,54,55,55,56,56,57,57,58,58,59,59,60,60,61,61,62,62],"right_children":[2,4,6,8,10,12,14,16,18,20,22,24,26,28,30,32,34,36,38,40,42,44,46,48,50,52,54,56,58,60,62,64,66,68,70,72,74,76,78,80,82,84,86,88,90,92,94,96,98,100,102,104,106,108,110,112,114,116,118,120,122,124,126,-1,-1,-1,-1,-1,-1,-1,-1,-1,-1,-1,-1,-1,-1,-1,-1,-1,-1,-1,-1,-1,-1,-1,-1,-1,-1,-1,-1,-1,-1,-1,-1,-1,-1,-1,-1,-1,-1,-1,-1,-1,-1,-1,-1,-1,-1,-1,-1,-1,-1,-1,-1,-1,-1,-1,-1,-1,-1,-1,-1,-1,-1,-1,-1],"split_conditions":[5.3E1,4.1E1,7E1,3.6E1,4.6E1,6E1,8.4E1,3.4E1,3.9E1,4.3E1,4.9E1,5.6E1,6.5E1,7.7E1,9.6E1,5.3E1,6.9E1,3.8E1,9E1,5.1E1,9.4E1,9.5E1,5.1E1,9.8E1,5.8E1,6.3E1,6.8E1,7.4E1,8.7E1,8.9E1,1.08E2,3.7E1,9.6E1,4E1,9.9E1,5.6E1,9.3E1,4.8E1,4E1,4.5E1,4.2E1,5.1E1,4.5E1,4.7E1,4.8E1,5.7E1,9E1,6E1,5.4E1,9.8E1,9.9E1,9.7E1,7.3E1,7.3E1,9.9E1,1.01E2,8.1E1,8E1,8E1,1.02E2,9.7E1,1E2,1.22E2,-1.2868068E-2,-1.1983843E-2,-1.1417942E-2,-1.0376591E-2,-1.13247335E-2,-1.0326849E-2,-9.815251E-3,-8.976731E-3,-9.371061E-3,-8.499487E-3,-8.0031175E-3,-6.812963E-3,-7.8704525E-3,-6.796043E-3,-5.982272E-3,-5.215652E-3,-6.7967027E-3,-6.126405E-3,-5.852669E-3,-5.080873E-3,-5.1676286E-3,-4.153858E-3,-3.4446854E-3,-2.5461225E-3,-3.217604E-3,-2.405554E-3,-1.8075831E-3,-1.1048405E-3,-2.1327068E-3,-1.0751539E-3,-5.882324E-4,5.9247995E-4,6.433461E-5,7.600893E-4,9.469295E-4,1.836814E-3,1.7059162E-3,2.6320373E-3,2.4995224E-3,3.3949555E-3,3.3172718E-3,4.3033063E-3,3.7345423E-3,4.792639E-3,4.45737E-3,5.3682704E-3,5.840717E-3,6.6887024E-3,6.6149686E-3,7.371402E-3,7.0718187E-3,7.827059E-3,7.898563E-3,8.45414E-3,8.634358E-3,9.219529E-3,9.516874E-3,1.0255742E-2,1.0180829E-2,1.0741837E-2,1.1104314E-2,1.1620645E-2,1.2092322E-2,1.3026134E-2],"split_indices":[0,0,0,0,0,0,0,0,0,0,0,0,0,0,0,1,1,0,1,1,1,1,0,1,0,0,0,0,1,0,0,1,1,1,1,1,1,1,0,1,0,1,0,0,0,1,1,1,0,1,1,1,1,1,1,1,1,0,0,1,1,0,0,0,0,0,0,0,0,0,0,0,0,0,0,0,0,0,0,0,0,0,0,0,0,0,0,0,0,0,0,0,0,0,0,0,0,0,0,0,0,0,0,0,0,0,0,0,0,0,0,0,0,0,0,0,0,0,0,0,0,0,0,0,0,0,0],"split_type":[0,0,0,0,0,0,0,0,0,0,0,0,0,0,0,0,0,0,0,0,0,0,0,0,0,0,0,0,0,0,0,0,0,0,0,0,0,0,0,0,0,0,0,0,0,0,0,0,0,0,0,0,0,0,0,0,0,0,0,0,0,0,0,0,0,0,0,0,0,0,0,0,0,0,0,0,0,0,0,0,0,0,0,0,0,0,0,0,0,0,0,0,0,0,0,0,0,0,0,0,0,0,0,0,0,0,0,0,0,0,0,0,0,0,0,0,0,0,0,0,0,0,0,0,0,0,0],"sum_hessian":[8.400631E6,4.255261E6,4.14537E6,2.093667E6,2.161594E6,2.076744E6,2.068626E6,9.85617E5,1.10805E6,9.81775E5,1.179819E6,9.78294E5,1.09845E6,1.063517E6,1.005109E6,5.04261E5,4.81356E5,6.80719E5,4.27331E5,4.06974E5,5.74801E5,5.3182E5,6.47999E5,4.42559E5,5.35735E5,5.8871E5,5.0974E5,5.96316E5,4.67201E5,5.40525E5,4.64584E5,2.01421E5,3.0284E5,2.91324E5,1.90032E5,4.59199E5,2.2152E5,3.46527E5,8.0804E4,8.7538E4,3.19436E5,4.76659E5,9.8142E4,4.38988E5,9.2832E4,3.32528E5,3.15471E5,3.64607E5,7.7952E4,2.75471E5,2.60264E5,3.63511E5,2.25199E5,3.14377E5,1.95363E5,3.57152E5,2.39164E5,1.39601E5,3.276E5,2.61695E5,2.7883E5,2.93388E5,1.71196E5,5.0509E4,1.50912E5,2.44374E5,5.8466E4,5.9202E4,2.32122E5,1.41144E5,4.8888E4,1.80133E5,2.79066E5,1.86976E5,3.4544E4,8.1841E4,2.64686E5,4.0402E4,4.0402E4,3.399E4,5.3548E4,1.59718E5,1.59718E5,9.487E4,3.81789E5,6.5428E4,3.2714E4,1.50884E5,2.88104E5,6.1888E4,3.0944E4,6.1074E4,2.71454E5,2.34667E5,8.0804E4,6.8498E4,2.96109E5,2.5984E4,5.1968E4,2.23503E5,5.1968E4,2.11376E5,4.8888E4,2.80771E5,8.274E4,5.9191E4,1.66008E5,6.5365E4,2.49012E5,1.46475E5,4.8888E4,2.7104E5,8.6112E4,5.584E4,1.83324E5,7.4989E4,6.4612E4,1.404E5,1.872E5,1.60945E5,1.0075E5,8.577E4,1.9306E5,1.20575E5,1.72813E5,1.48571E5,2.2625E4],"tree_param":{"num_deleted":"0","num_feature":"30","num_nodes":"127","size_leaf_vector":"0"}},{"base_weights":[-7.759809E-9,-1.4775182E-2,1.4083326E-2,-2.2427179E-2,-8.277482E-3,6.2913084E-3,2.1094184E-2,-2.6368542E-2,-1.9830152E-2,-1.2446137E-2,-4.8186113E-3,2.7866298E-3,9.708519E-3,1.74388E-2,2.52139E-2,-2.8301703E-2,-2.5367834E-2,-2.2064254E-2,-1.824968E-2,-1.3760949E-2,-1.0347987E-2,-7.0892936E-3,-2.95261E-3,8.066679E-4,4.4205054E-3,7.300311E-3,1.1079336E-2,1.54806245E-2,1.9640574E-2,2.3059702E-2,2.6804248E-2,-2.9697781E-2,-2.7408296E-2,-2.6810715E-2,-2.458506E-2,-2.2514794E-2,-1.927677E-2,-1.87201E-2,-1.5154727E-2,-1.4258614E-2,-1.075123E-2,-1.0768075E-2,-7.637076E-3,-8.609106E-3,-6.18594E-3,-4.1270545E-3,-1.7155808E-3,-5.8107765E-4,1.4327598E-3,2.2104024E-3,4.95474E-3,5.112749E-3,7.724904E-3,1.0422674E-2,1.3365315E-2,1.4286589E-2,1.647698E-2,1.9059189E-2,2.1239065E-2,2.136513E-2,2.3582352E-2,2.5769541E-2,2.8120445E-2,-9.511889E-3,-8.783493E-3,-8.382802E-3,-7.6607834E-3,-8.499014E-3,-7.85997E-3,-7.5176693E-3,-6.823547E-3,-7.425731E-3,-6.6183545E-3,-6.0260086E-3,-5.5010794E-3,-6.031685E-3,-5.399432E-3,-4.825468E-3,-3.9881724E-3,-5.0218413E-3,-4.159596E-3,-3.4695908E-3,-2.7368236E-3,-3.5649347E-3,-2.8861118E-3,-2.5221067E-3,-2.0581586E-3,-2.8575242E-3,-1.9684108E-3,-1.9943076E-3,-1.2589964E-3,-2.1716072E-3,-1.0304212E-3,-6.494403E-4,2.4348985E-4,-5.6647335E-4,4.84165E-5,3.128987E-4,9.616224E-4,3.6980322E-4,8.2272757E-4,1.2367405E-3,1.736097E-3,1.3410754E-3,1.7384348E-3,2.2133735E-3,2.8328304E-3,2.906475E-3,3.6191917E-3,3.6828998E-3,4.172903E-3,3.675627E-3,4.4362433E-3,4.4664224E-3,5.1141256E-3,5.4728515E-3,6.016739E-3,6.117936E-3,6.625418E-3,6.184223E-3,6.6551035E-3,6.7645456E-3,7.229756E-3,7.5687566E-3,7.992466E-3,8.317253E-3,8.864567E-3],"categories":[],"categories_nodes":[],"categories_segments":[],"categories_sizes":[],"default_left":[0,0,0,0,0,0,0,0,0,0,0,0,0,0,0,0,0,0,0,0,0,0,0,0,0,0,0,0,0,0,0,0,0,0,0,0,0,0,0,0,0,0,0,0,0,0,0,0,0,0,0,0,0,0,0,0,0,0,0,0,0,0,0,0,0,0,0,0,0,0,0,0,0,0,0,0,0,0,0,0,0,0,0,0,0,0,0,0,0,0,0,0,0,0,0,0,0,0,0,0,0,0,0,0,0,0,0,0,0,0,0,0,0,0,0,0,0,0,0,0,0,0,0,0,0,0,0],"id":8,"left_children":[1,3,5,7,9,11,13,15,17,19,21,23,25,27,29,31,33,35,37,39,41,43,45,47,49,51,53,55,57,59,61,63,65,67,69,71,73,75,77,79,81,83,85,87,89,91,93,95,97,99,101,103,105,107,109,111,113,115,117,119,121,123,125,-1,-1,-1,-1,-1,-1,-1,-1,-1,-1,-1,-1,-1,-1,-1,-1,-1,-1,-1,-1,-1,-1,-1,-1,-1,-1,-1,-1,-1,-1,-1,-1,-1,-1,-1,-1,-1,-1,-1,-1,-1,-1,-1,-1,-1,-1,-1,-1,-1,-1,-1,-1,-1,-1,-1,-1,-1,-1,-1,-1,-1,-1,-1,-1],"loss_changes":[1.7480349E3,2.0383441E2,2.3495874E2,1.9269287E1,3.1966919E1,2.4395828E1,3.4093323E1,1.4458618E0,4.0066223E0,2.7733307E0,5.1339417E0,3.2532635E0,3.4047241E0,5.1717224E0,3.645874E0,3.1730652E-1,5.5581665E-1,5.900574E-1,9.6739197E-1,9.2557526E-1,4.4099045E-1,7.5034523E-1,9.6627045E-1,3.9504287E-1,6.505327E-1,3.474617E-1,9.864807E-1,7.551422E-1,5.243683E-1,3.9987183E-1,8.331604E-1,8.2901E-2,1.5490723E-1,1.6005707E-1,2.7790833E-1,4.1029358E-1,4.943657E-2,5.7676697E-1,1.5158463E-1,5.172348E-1,1.1615944E-1,4.290352E-1,3.1014442E-2,3.8211918E-1,3.148632E-1,7.3496246E-1,3.6774343E-1,1.3718912E-1,2.1647054E-1,5.578971E-2,3.0731964E-1,2.6623964E-2,1.8669128E-1,6.153488E-1,8.677292E-2,2.9413986E-1,3.1326294E-1,3.365326E-1,1.0727692E-1,6.505966E-2,1.8408203E-1,1.6085815E-1,1.5170288E-1,0E0,0E0,0E0,0E0,0E0,0E0,0E0,0E0,0E0,0E0,0E0,0E0,0E0,0E0,0E0,0E0,0E0,0E0,0E0,0E0,0E0,0E0,0E0,0E0,0E0,0E0,0E0,0E0,0E0,0E0,0E0,0E0,0E0,0E0,0E0,0E0,0E0,0E0,0E0,0E0,0E0,0E0,0E0,0E0,0E0,0E0,0E0,0E0,0E0,0E0,0E0,0E0,0E0,0E0,0E0,0E0,0E0,0E0,0E0,0E0,0E0,0E0,0E0,0E0],"parents":[2147483647,0,0,1,1,2,2,3,3,4,4,5,5,6,6,7,7,8,8,9,9,10,10,11,11,12,12,13,13,14,14,15,15,16,16,17,17,18,18,19,19,20,20,21,21,22,22,23,23,24,24,25,25,26,26,27,27,28,28,29,29,30,30,31,31,32,32,33,33,34,34,35,35,36,36,37,37,38,38,39,39,40,40,41,41,42,42,43,43,44,44,45,45,46,46,47,47,48,48,49,49,50,50,51,51,52,52,53,53,54,54,55,55,56,56,57,57,58,58,59,59,60,60,61,61,62,62],"right_children":[2,4,6,8,10,12,14,16,18,20,22,24,26,28,30,32,34,36,38,40,42,44,46,48,50,52,54,56,58,60,62,64,66,68,70,72,74,76,78,80,82,84,86,88,90,92,94,96,98,100,102,104,106,108,110,112,114,116,118,120,122,124,126,-1,-1,-1,-1,-1,-1,-1,-1,-1,-1,-1,-1,-1,-1,-1,-1,-1,-1,-1,-1,-1,-1,-1,-1,-1,-1,-1,-1,-1,-1,-1,-1,-1,-1,-1,-1,-1,-1,-1,-1,-1,-1,-1,-1,-1,-1,-1,-1,-1,-1,-1,-1,-1,-1,-1,-1,-1,-1,-1,-1,-1,-1,-1,-1],"split_conditions":[5.2E1,4E1,6.8E1,3.5E1,4.5E1,5.9E1,8.3E1,3.3E1,3.7E1,4.3E1,4.8E1,5.5E1,6.2E1,7.5E1,9.2E1,5.2E1,5.1E1,9.4E1,9.6E1,9.6E1,9.8E1,6.3E1,5E1,6.6E1,6.4E1,6.6E1,9.9E1,7.1E1,1.03E2,9.1E1,1.03E2,3.5E1,9.3E1,3.8E1,9.4E1,4.2E1,1.06E2,3.8E1,3.9E1,4.6E1,4.2E1,4.4E1,1.08E2,4.7E1,1.01E2,5.6E1,9.9E1,5.3E1,1.03E2,5.9E1,5.7E1,6.3E1,1.04E2,6.6E1,6.4E1,7.5E1,8E1,7.9E1,7.9E1,8.6E1,8.6E1,1.09E2,1.17E2,-9.511889E-3,-8.783493E-3,-8.382802E-3,-7.6607834E-3,-8.499014E-3,-7.85997E-3,-7.5176693E-3,-6.823547E-3,-7.425731E-3,-6.6183545E-3,-6.0260086E-3,-5.5010794E-3,-6.031685E-3,-5.399432E-3,-4.825468E-3,-3.9881724E-3,-5.0218413E-3,-4.159596E-3,-3.4695908E-3,-2.7368236E-3,-3.5649347E-3,-2.8861118E-3,-2.5221067E-3,-2.0581586E-3,-2.8575242E-3,-1.9684108E-3,-1.9943076E-3,-1.2589964E-3,-2.1716072E-3,-1.0304212E-3,-6.494403E-4,2.4348985E-4,-5.6647335E-4,4.84165E-5,3.128987E-4,9.616224E-4,3.6980322E-4,8.2272757E-4,1.2367405E-3,1.736097E-3,1.3410754E-3,1.7384348E-3,2.2133735E-3,2.8328304E-3,2.906475E-3,3.6191917E-3,3.6828998E-3,4.172903E-3,3.675627E-3,4.4362433E-3,4.4664224E-3,5.1141256E-3,5.4728515E-3,6.016739E-3,6.117936E-3,6.625418E-3,6.184223E-3,6.6551035E-3,6.7645456E-3,7.229756E-3,7.5687566E-3,7.992466E-3,8.317253E-3,8.864567E-3],"split_indices":[0,0,0,0,0,0,0,0,0,0,0,0,0,0,0,1,1,1,1,1,1,1,0,1,1,1,1,0,1,1,0,1,1,1,1,1,1,0,0,1,0,0,1,0,1,1,1,0,1,1,0,1,1,0,0,1,1,0,0,0,0,1,0,0,0,0,0,0,0,0,0,0,0,0,0,0,0,0,0,0,0,0,0,0,0,0,0,0,0,0,0,0,0,0,0,0,0,0,0,0,0,0,0,0,0,0,0,0,0,0,0,0,0,0,0,0,0,0,0,0,0,0,0,0,0,0,0],"split_type":[0,0,0,0,0,0,0,0,0,0,0,0,0,0,0,0,0,0,0,0,0,0,0,0,0,0,0,0,0,0,0,0,0,0,0,0,0,0,0,0,0,0,0,0,0,0,0,0,0,0,0,0,0,0,0,0,0,0,0,0,0,0,0,0,0,0,0,0,0,0,0,0,0,0,0,0,0,0,0,0,0,0,0,0,0,0,0,0,0,0,0,0,0,0,0,0,0,0,0,0,0,0,0,0,0,0,0,0,0,0,0,0,0,0,0,0,0,0,0,0,0,0,0,0,0,0,0],"sum_hessian":[8.400631E6,4.099619E6,4.301012E6,1.88259E6,2.217029E6,2.037023E6,2.263989E6,7.47755E5,1.134835E6,1.00536E6,1.211669E6,1.005642E6,1.031381E6,1.1996E6,1.064389E6,2.55041E5,4.92714E5,4.70185E5,6.6465E5,6.18051E5,3.87309E5,5.46566E5,6.65103E5,4.54668E5,5.50974E5,3.74129E5,6.57252E5,6.34928E5,5.64672E5,4.52064E5,6.12325E5,9.951E4,1.55531E5,1.73278E5,3.19436E5,4.04757E5,6.5428E4,5.76951E5,8.7699E4,5.30352E5,8.7699E4,3.35341E5,5.1968E4,2.03756E5,3.4281E5,3.41181E5,3.23922E5,1.41354E5,3.13314E5,1.07258E5,4.43716E5,6.0815E4,3.13314E5,5.10588E5,1.46664E5,2.8882E5,3.46108E5,4.1408E5,1.50592E5,1.06572E5,3.45492E5,3.42833E5,2.69492E5,1.7179E4,8.2331E4,1.20987E5,3.4544E4,4.9674E4,1.23604E5,2.54008E5,6.5428E4,6.8213E4,3.36544E5,3.5132E4,3.0296E4,1.97643E5,3.79308E5,5.8466E4,2.9233E4,7.2567E4,4.57785E5,5.8466E4,2.9233E4,1.70086E5,1.65255E5,2.609E4,2.5878E4,1.4078E5,6.2976E4,2.78226E5,6.4584E4,6.2093E4,2.79088E5,2.75034E5,4.8888E4,5.1204E4,9.015E4,2.56842E5,5.6472E4,3.7798E4,6.946E4,2.21858E5,2.21858E5,3.1319E4,2.9496E4,2.60667E5,5.2647E4,3.52751E5,1.57837E5,4.8888E4,9.7776E4,5.7064E4,2.31756E5,9.14E4,2.54708E5,2.27636E5,1.86444E5,7.5296E4,7.5296E4,5.5591E4,5.0981E4,1.15164E5,2.30328E5,2.11688E5,1.31145E5,2.10972E5,5.852E4],"tree_param":{"num_deleted":"0","num_feature":"30","num_nodes":"127","size_leaf_vector":"0"}},{"base_weights":[-7.692451E-9,-9.969096E-3,1.0233355E-2,-1.4708914E-2,-4.3953997E-3,5.4738782E-3,1.5462785E-2,-1.72949E-2,-1.1797248E-2,-6.7694145E-3,-2.1174261E-3,3.1807725E-3,8.440937E-3,1.3165148E-2,1.7951244E-2,-1.8458067E-2,-1.5445034E-2,-1.335196E-2,-1.0696479E-2,-8.151522E-3,-5.790425E-3,-3.286947E-3,-8.531252E-4,1.960675E-3,4.9117836E-3,7.4847615E-3,9.799766E-3,1.1880359E-2,1.4397833E-2,1.685305E-2,1.9263042E-2,-1.9811327E-2,-1.7757546E-2,-1.6748149E-2,-1.4928084E-2,-1.5816014E-2,-1.299843E-2,-1.119025E-2,-8.962871E-3,-9.159535E-3,-6.748535E-3,-7.0892214E-3,-5.250272E-3,-5.623053E-3,-2.8842094E-3,-1.8090842E-3,-2.0077717E-4,9.258909E-4,2.699154E-3,3.931216E-3,5.4799756E-3,5.0473586E-3,7.991336E-3,9.425563E-3,1.150846E-2,1.1516244E-2,1.3385529E-2,1.2783297E-2,1.4752567E-2,1.6344033E-2,1.7789228E-2,1.8934378E-2,2.03558E-2,-6.1108912E-3,-5.5775573E-3,-5.4788464E-3,-4.957838E-3,-5.493897E-3,-4.904617E-3,-4.5745997E-3,-3.987561E-3,-4.892634E-3,-4.4731474E-3,-3.9808345E-3,-3.2402547E-3,-4.0498176E-3,-3.2617804E-3,-2.8868085E-3,-2.3192535E-3,-3.2421965E-3,-2.6058184E-3,-2.1394189E-3,-1.5961094E-3,-2.4706896E-3,-2.011505E-3,-1.7626726E-3,-1.1998893E-3,-1.9140797E-3,-1.4464521E-3,-9.628183E-4,-2.4918778E-4,-8.542848E-4,-4.3723753E-4,-4.0727638E-4,1.13289694E-4,2.0321782E-4,6.8868353E-4,5.078855E-4,1.0158133E-3,1.0151566E-3,1.371231E-3,1.5668907E-3,2.044195E-3,1.0731809E-3,1.6766508E-3,2.2958557E-3,2.86782E-3,2.4014595E-3,2.9008426E-3,3.2906274E-3,3.6039765E-3,3.0366527E-3,3.546506E-3,3.609113E-3,4.096923E-3,3.708162E-3,3.976756E-3,4.32873E-3,4.7665276E-3,4.7448976E-3,5.148845E-3,5.2275932E-3,5.477947E-3,5.5593364E-3,5.8652973E-3,6.0133063E-3,6.556539E-3],"categories":[],"categories_nodes":[],"categories_segments":[],"categories_sizes":[],"default_left":[0,0,0,0,0,0,0,0,0,0,0,0,0,0,0,0,0,0,0,0,0,0,0,0,0,0,0,0,0,0,0,0,0,0,0,0,0,0,0,0,0,0,0,0,0,0,0,0,0,0,0,0,0,0,0,0,0,0,0,0,0,0,0,0,0,0,0,0,0,0,0,0,0,0,0,0,0,0,0,0,0,0,0,0,0,0,0,0,0,0,0,0,0,0,0,0,0,0,0,0,0,0,0,0,0,0,0,0,0,0,0,0,0,0,0,0,0,0,0,0,0,0,0,0,0,0,0],"id":9,"left_children":[1,3,5,7,9,11,13,15,17,19,21,23,25,27,29,31,33,35,37,39,41,43,45,47,49,51,53,55,57,59,61,63,65,67,69,71,73,75,77,79,81,83,85,87,89,91,93,95,97,99,101,103,105,107,109,111,113,115,117,119,121,123,125,-1,-1,-1,-1,-1,-1,-1,-1,-1,-1,-1,-1,-1,-1,-1,-1,-1,-1,-1,-1,-1,-1,-1,-1,-1,-1,-1,-1,-1,-1,-1,-1,-1,-1,-1,-1,-1,-1,-1,-1,-1,-1,-1,-1,-1,-1,-1,-1,-1,-1,-1,-1,-1,-1,-1,-1,-1,-1,-1,-1,-1,-1,-1,-1],"loss_changes":[8.5700977E2,1.1241675E2,1.0317551E2,1.7315094E1,1.0575802E1,1.4765549E1,1.1292938E1,2.6203613E0,1.8510742E0,1.2956734E0,1.4756546E0,2.5853567E0,1.2291412E0,1.6262817E0,1.3656921E0,7.084961E-1,3.1648254E-1,3.9040375E-1,5.420227E-1,5.614681E-1,3.932209E-1,4.8774052E-1,2.9906502E-1,5.4869246E-1,2.819519E-1,6.8562317E-1,2.497406E-1,2.754364E-1,2.9997253E-1,2.4565125E-1,1.5478516E-1,1.7327118E-1,3.0628967E-1,8.316803E-2,1.7638397E-1,2.4860382E-2,2.3340607E-1,3.6141205E-1,1.1405945E-1,1.8016624E-1,9.073353E-2,7.24659E-2,3.0959034E-1,4.623747E-2,2.952938E-1,7.102853E-2,1.9072972E-1,1.0177922E-1,2.8959012E-1,6.498337E-2,1.0982227E-1,7.6045275E-2,2.4394989E-1,1.1100578E-1,1.899147E-2,1.7229843E-1,3.5787582E-2,1.8699646E-2,1.5764618E-1,1.4420319E-1,3.0815125E-2,8.223724E-2,4.6207428E-2,0E0,0E0,0E0,0E0,0E0,0E0,0E0,0E0,0E0,0E0,0E0,0E0,0E0,0E0,0E0,0E0,0E0,0E0,0E0,0E0,0E0,0E0,0E0,0E0,0E0,0E0,0E0,0E0,0E0,0E0,0E0,0E0,0E0,0E0,0E0,0E0,0E0,0E0,0E0,0E0,0E0,0E0,0E0,0E0,0E0,0E0,0E0,0E0,0E0,0E0,0E0,0E0,0E0,0E0,0E0,0E0,0E0,0E0,0E0,0E0,0E0,0E0,0E0,0E0],"parents":[2147483647,0,0,1,1,2,2,3,3,4,4,5,5,6,6,7,7,8,8,9,9,10,10,11,11,12,12,13,13,14,14,15,15,16,16,17,17,18,18,19,19,20,20,21,21,22,22,23,23,24,24,25,25,26,26,27,27,28,28,29,29,30,30,31,31,32,32,33,33,34,34,35,35,36,36,37,37,38,38,39,39,40,40,41,41,42,42,43,43,44,44,45,45,46,46,47,47,48,48,49,49,50,50,51,51,52,52,53,53,54,54,55,55,56,56,57,57,58,58,59,59,60,60,61,61,62,62],"right_children":[2,4,6,8,10,12,14,16,18,20,22,24,26,28,30,32,34,36,38,40,42,44,46,48,50,52,54,56,58,60,62,64,66,68,70,72,74,76,78,80,82,84,86,88,90,92,94,96,98,100,102,104,106,108,110,112,114,116,118,120,122,124,126,-1,-1,-1,-1,-1,-1,-1,-1,-1,-1,-1,-1,-1,-1,-1,-1,-1,-1,-1,-1,-1,-1,-1,-1,-1,-1,-1,-1,-1,-1,-1,-1,-1,-1,-1,-1,-1,-1,-1,-1,-1,-1,-1,-1,-1,-1,-1,-1,-1,-1,-1,-1,-1,-1,-1,-1,-1,-1,-1,-1,-1,-1,-1,-1],"split_conditions":[5.3E1,4.2E1,7.1E1,3.7E1,4.7E1,6.2E1,8.5E1,3.5E1,3.9E1,4.4E1,5E1,5.8E1,6.7E1,7.7E1,9.7E1,3.3E1,4.9E1,4.3E1,8.7E1,7.3E1,5.8E1,5.4E1,6.9E1,5.5E1,7.4E1,7E1,1.04E2,1.05E2,8.4E1,1.06E2,1.13E2,7.4E1,7.7E1,3.8E1,9.7E1,4.1E1,1.01E2,4.4E1,1.05E2,4.8E1,1.04E2,4.8E1,4.6E1,5.1E1,1.02E2,5.5E1,5.1E1,1E2,7.3E1,6E1,1.08E2,6.3E1,1.05E2,7.2E1,1.12E2,7.7E1,7.2E1,8.1E1,1.09E2,9.1E1,1.15E2,1.13E2,1.23E2,-6.1108912E-3,-5.5775573E-3,-5.4788464E-3,-4.957838E-3,-5.493897E-3,-4.904617E-3,-4.5745997E-3,-3.987561E-3,-4.892634E-3,-4.4731474E-3,-3.9808345E-3,-3.2402547E-3,-4.0498176E-3,-3.2617804E-3,-2.8868085E-3,-2.3192535E-3,-3.2421965E-3,-2.6058184E-3,-2.1394189E-3,-1.5961094E-3,-2.4706896E-3,-2.011505E-3,-1.7626726E-3,-1.1998893E-3,-1.9140797E-3,-1.4464521E-3,-9.628183E-4,-2.4918778E-4,-8.542848E-4,-4.3723753E-4,-4.0727638E-4,1.13289694E-4,2.0321782E-4,6.8868353E-4,5.078855E-4,1.0158133E-3,1.0151566E-3,1.371231E-3,1.5668907E-3,2.044195E-3,1.0731809E-3,1.6766508E-3,2.2958557E-3,2.86782E-3,2.4014595E-3,2.9008426E-3,3.2906274E-3,3.6039765E-3,3.0366527E-3,3.546506E-3,3.609113E-3,4.096923E-3,3.708162E-3,3.976756E-3,4.32873E-3,4.7665276E-3,4.7448976E-3,5.148845E-3,5.2275932E-3,5.477947E-3,5.5593364E-3,5.8652973E-3,6.0133063E-3,6.556539E-3],"split_indices":[0,0,0,0,0,0,0,0,0,0,0,0,0,0,0,0,1,1,1,1,1,1,1,0,1,1,1,1,1,1,0,1,1,1,1,1,1,1,1,1,1,1,0,1,1,1,0,1,1,0,1,0,1,1,1,1,0,1,1,0,1,1,0,0,0,0,0,0,0,0,0,0,0,0,0,0,0,0,0,0,0,0,0,0,0,0,0,0,0,0,0,0,0,0,0,0,0,0,0,0,0,0,0,0,0,0,0,0,0,0,0,0,0,0,0,0,0,0,0,0,0,0,0,0,0,0,0],"split_type":[0,0,0,0,0,0,0,0,0,0,0,0,0,0,0,0,0,0,0,0,0,0,0,0,0,0,0,0,0,0,0,0,0,0,0,0,0,0,0,0,0,0,0,0,0,0,0,0,0,0,0,0,0,0,0,0,0,0,0,0,0,0,0,0,0,0,0,0,0,0,0,0,0,0,0,0,0,0,0,0,0,0,0,0,0,0,0,0,0,0,0,0,0,0,0,0,0,0,0,0,0,0,0,0,0,0,0,0,0,0,0,0,0,0,0,0,0,0,0,0,0,0,0,0,0,0,0],"sum_hessian":[8.400631E6,4.255261E6,4.14537E6,2.299655E6,1.955606E6,2.170201E6,1.975169E6,1.21794E6,1.081715E6,9.57615E5,9.97991E5,1.224129E6,9.46072E5,1.026963E6,9.48206E5,7.47755E5,4.70185E5,4.48396E5,6.33319E5,3.97056E5,5.60559E5,5.18427E5,4.79564E5,7.1803E5,5.06099E5,5.55316E5,3.90756E5,5.02859E5,5.24104E5,5.16131E5,4.32075E5,2.55041E5,4.92714E5,1.33537E5,3.36648E5,5.6256E4,3.9214E5,4.92919E5,1.404E5,2.31048E5,1.66008E5,1.64649E5,3.9591E5,7.6231E4,4.42196E5,1.94516E5,2.85048E5,2.99026E5,4.19004E5,1.85675E5,3.20424E5,9.5556E4,4.5976E5,3.2056E5,7.0196E4,4.04915E5,9.7944E4,9.4416E4,4.29688E5,3.34355E5,1.81776E5,3.32184E5,9.9891E4,1.74935E5,8.0106E4,3.49354E5,1.4336E5,2.7145E4,1.06392E5,2.81488E5,5.516E4,3.642E4,1.9836E4,3.49084E5,4.3056E4,5.9602E4,4.33317E5,9.1428E4,4.8972E4,5.1566E4,1.79482E5,1.3091E5,3.5098E4,4.1324E4,1.23325E5,2.6394E5,1.3197E5,3.9196E4,3.7035E4,3.81746E5,6.045E4,4.9199E4,1.45317E5,9.5016E4,1.90032E5,2.53108E5,4.5918E4,1.69992E5,2.49012E5,1.00052E5,8.5623E4,2.68668E5,5.1756E4,2.5724E4,6.9832E4,3.7814E5,8.162E4,4.6976E4,2.73584E5,3.3936E4,3.626E4,7.2779E4,3.32136E5,1.6324E4,8.162E4,4.9848E4,4.4568E4,3.34456E5,9.5232E4,2.03329E5,1.31026E5,1.02528E5,7.9248E4,2.00857E5,1.31327E5,8.2722E4,1.7169E4],"tree_param":{"num_deleted":"0","num_feature":"30","num_nodes":"127","size_leaf_vector":"0"}},{"base_weights":[-2.8710123E-9,-7.2434936E-3,6.9043147E-3,-1.06544E-2,-3.6834334E-3,3.0825925E-3,1.0342904E-2,-1.2520079E-2,-8.994859E-3,-5.4118177E-3,-2.0266022E-3,1.547825E-3,5.0096763E-3,8.306132E-3,1.2180281E-2,-1.3394297E-2,-1.1604235E-2,-1.0059487E-2,-8.2413955E-3,-6.0306406E-3,-4.426468E-3,-2.8612555E-3,-1.1250465E-3,6.133768E-4,2.5912256E-3,4.258447E-3,5.8535826E-3,7.2321435E-3,9.133935E-3,1.106532E-2,1.309452E-2,-1.44814E-2,-1.2973938E-2,-1.21147195E-2,-1.0862485E-2,-1.0516513E-2,-9.052536E-3,-1.0220475E-2,-7.9252245E-3,-6.450395E-3,-4.8794216E-3,-4.6201805E-3,-2.6714008E-3,-4.685938E-3,-2.606166E-3,-1.4991798E-3,6.012645E-4,4.2467818E-4,2.2875909E-3,9.595632E-4,2.8166485E-3,2.9818867E-3,4.6965117E-3,5.426499E-3,6.7410176E-3,6.9884984E-3,8.491872E-3,8.154403E-3,9.477234E-3,1.0085163E-2,1.1386123E-2,1.2421659E-2,1.3700784E-2,-4.6702926E-3,-4.2165467E-3,-3.9552054E-3,-3.30211E-3,-4.177329E-3,-3.5762028E-3,-3.3124923E-3,-2.8693597E-3,-3.5544944E-3,-3.0847015E-3,-2.821975E-3,-2.355506E-3,-3.282959E-3,-2.8372337E-3,-2.4967734E-3,-2.063846E-3,-2.1619205E-3,-1.8337979E-3,-1.8035005E-3,-1.2939742E-3,-1.6440575E-3,-1.3229755E-3,-9.749849E-4,-6.278131E-4,-1.5147865E-3,-1.2342902E-3,-8.344207E-4,-2.9464607E-4,-6.285454E-4,-2.9371784E-4,3.1554084E-6,4.3836207E-4,-3.058427E-4,1.7707159E-4,4.7870548E-4,8.938265E-4,-6.3113584E-6,3.512734E-4,7.78402E-4,1.2584347E-3,6.696505E-4,1.0362176E-3,1.3307071E-3,1.6760123E-3,1.2531606E-3,1.6980438E-3,1.9166417E-3,2.2510295E-3,1.7777529E-3,2.1621555E-3,2.313924E-3,2.6059318E-3,2.2910268E-3,2.5481796E-3,2.788073E-3,3.129154E-3,2.980499E-3,3.2117586E-3,3.3427023E-3,3.639093E-3,3.562887E-3,3.82434E-3,4.074024E-3,4.5092935E-3],"categories":[],"categories_nodes":[],"categories_segments":[],"categories_sizes":[],"default_left":[0,0,0,0,0,0,0,0,0,0,0,0,0,0,0,0,0,0,0,0,0,0,0,0,0,0,0,0,0,0,0,0,0,0,0,0,0,0,0,0,0,0,0,0,0,0,0,0,0,0,0,0,0,0,0,0,0,0,0,0,0,0,0,0,0,0,0,0,0,0,0,0,0,0,0,0,0,0,0,0,0,0,0,0,0,0,0,0,0,0,0,0,0,0,0,0,0,0,0,0,0,0,0,0,0,0,0,0,0,0,0,0,0,0,0,0,0,0,0,0,0,0,0,0,0,0,0],"id":10,"left_children":[1,3,5,7,9,11,13,15,17,19,21,23,25,27,29,31,33,35,37,39,41,43,45,47,49,51,53,55,57,59,61,63,65,67,69,71,73,75,77,79,81,83,85,87,89,91,93,95,97,99,101,103,105,107,109,111,113,115,117,119,121,123,125,-1,-1,-1,-1,-1,-1,-1,-1,-1,-1,-1,-1,-1,-1,-1,-1,-1,-1,-1,-1,-1,-1,-1,-1,-1,-1,-1,-1,-1,-1,-1,-1,-1,-1,-1,-1,-1,-1,-1,-1,-1,-1,-1,-1,-1,-1,-1,-1,-1,-1,-1,-1,-1,-1,-1,-1,-1,-1,-1,-1,-1,-1,-1,-1],"loss_changes":[4.2012708E2,4.9781784E1,5.6521027E1,6.482239E0,5.744318E0,6.024748E0,8.472488E0,7.8897095E-1,8.887558E-1,5.9861755E-1,7.706766E-1,1.1055915E0,5.7250404E-1,9.5453644E-1,1.2131348E0,2.302475E-1,1.8213654E-1,2.1123123E-1,4.0592194E-1,2.913761E-1,1.2874842E-1,2.4752808E-1,3.180002E-1,1.8898416E-1,1.9704843E-1,2.67169E-1,1.6115856E-1,1.4339256E-1,2.038269E-1,1.6850281E-1,2.6661682E-1,6.4884186E-2,1.501236E-1,9.99527E-2,4.5524597E-2,9.838486E-2,6.0876846E-2,4.918289E-2,2.3242188E-1,1.12789154E-1,1.0326886E-1,6.1653137E-2,1.2598127E-2,1.3527393E-2,1.3278294E-1,1.2543303E-1,4.455228E-2,1.2854032E-1,2.9000014E-2,1.3477787E-2,1.4398336E-1,4.3204665E-2,8.2565784E-2,8.378792E-2,3.7056923E-2,9.0969086E-2,1.14097595E-2,2.7593613E-2,7.850647E-2,1.2220383E-2,7.316208E-2,5.4985046E-2,5.5030823E-2,0E0,0E0,0E0,0E0,0E0,0E0,0E0,0E0,0E0,0E0,0E0,0E0,0E0,0E0,0E0,0E0,0E0,0E0,0E0,0E0,0E0,0E0,0E0,0E0,0E0,0E0,0E0,0E0,0E0,0E0,0E0,0E0,0E0,0E0,0E0,0E0,0E0,0E0,0E0,0E0,0E0,0E0,0E0,0E0,0E0,0E0,0E0,0E0,0E0,0E0,0E0,0E0,0E0,0E0,0E0,0E0,0E0,0E0,0E0,0E0,0E0,0E0,0E0,0E0],"parents":[2147483647,0,0,1,1,2,2,3,3,4,4,5,5,6,6,7,7,8,8,9,9,10,10,11,11,12,12,13,13,14,14,15,15,16,16,17,17,18,18,19,19,20,20,21,21,22,22,23,23,24,24,25,25,26,26,27,27,28,28,29,29,30,30,31,31,32,32,33,33,34,34,35,35,36,36,37,37,38,38,39,39,40,40,41,41,42,42,43,43,44,44,45,45,46,46,47,47,48,48,49,49,50,50,51,51,52,52,53,53,54,54,55,55,56,56,57,57,58,58,59,59,60,60,61,61,62,62],"right_children":[2,4,6,8,10,12,14,16,18,20,22,24,26,28,30,32,34,36,38,40,42,44,46,48,50,52,54,56,58,60,62,64,66,68,70,72,74,76,78,80,82,84,86,88,90,92,94,96,98,100,102,104,106,108,110,112,114,116,118,120,122,124,126,-1,-1,-1,-1,-1,-1,-1,-1,-1,-1,-1,-1,-1,-1,-1,-1,-1,-1,-1,-1,-1,-1,-1,-1,-1,-1,-1,-1,-1,-1,-1,-1,-1,-1,-1,-1,-1,-1,-1,-1,-1,-1,-1,-1,-1,-1,-1,-1,-1,-1,-1,-1,-1,-1,-1,-1,-1,-1,-1,-1,-1,-1,-1,-1],"split_conditions":[5.2E1,4.1E1,6.8E1,3.6E1,4.6E1,6E1,8.1E1,3.4E1,3.8E1,4.4E1,4.9E1,5.6E1,6.4E1,7.3E1,9.1E1,4.6E1,6.8E1,7.7E1,4.5E1,8.4E1,1.03E2,5.2E1,9.6E1,1.06E2,6.2E1,7.1E1,9.3E1,1.06E2,8.3E1,9E1,1E2,3.6E1,1.04E2,3.7E1,1.09E2,4.1E1,1.05E2,4.2E1,8.5E1,5.2E1,4.2E1,5.2E1,4.5E1,5E1,1.06E2,6.7E1,1.09E2,5.7E1,5.4E1,5.8E1,1.05E2,6.5E1,1.02E2,6.9E1,1.1E2,7.4E1,6.9E1,7.8E1,1.12E2,8.7E1,1.11E2,1.01E2,1.21E2,-4.6702926E-3,-4.2165467E-3,-3.9552054E-3,-3.30211E-3,-4.177329E-3,-3.5762028E-3,-3.3124923E-3,-2.8693597E-3,-3.5544944E-3,-3.0847015E-3,-2.821975E-3,-2.355506E-3,-3.282959E-3,-2.8372337E-3,-2.4967734E-3,-2.063846E-3,-2.1619205E-3,-1.8337979E-3,-1.8035005E-3,-1.2939742E-3,-1.6440575E-3,-1.3229755E-3,-9.749849E-4,-6.278131E-4,-1.5147865E-3,-1.2342902E-3,-8.344207E-4,-2.9464607E-4,-6.285454E-4,-2.9371784E-4,3.1554084E-6,4.3836207E-4,-3.058427E-4,1.7707159E-4,4.7870548E-4,8.938265E-4,-6.3113584E-6,3.512734E-4,7.78402E-4,1.2584347E-3,6.696505E-4,1.0362176E-3,1.3307071E-3,1.6760123E-3,1.2531606E-3,1.6980438E-3,1.9166417E-3,2.2510295E-3,1.7777529E-3,2.1621555E-3,2.313924E-3,2.6059318E-3,2.2910268E-3,2.5481796E-3,2.788073E-3,3.129154E-3,2.980499E-3,3.2117586E-3,3.3427023E-3,3.639093E-3,3.562887E-3,3.82434E-3,4.074024E-3,4.5092935E-3],"split_indices":[0,0,0,0,0,0,0,0,0,0,0,0,0,0,0,1,1,1,1,1,1,1,1,1,1,1,1,1,1,1,0,1,1,1,1,1,1,1,1,1,0,1,0,1,1,1,1,1,0,1,1,1,1,1,1,1,0,1,1,0,1,1,0,0,0,0,0,0,0,0,0,0,0,0,0,0,0,0,0,0,0,0,0,0,0,0,0,0,0,0,0,0,0,0,0,0,0,0,0,0,0,0,0,0,0,0,0,0,0,0,0,0,0,0,0,0,0,0,0,0,0,0,0,0,0,0,0],"split_type":[0,0,0,0,0,0,0,0,0,0,0,0,0,0,0,0,0,0,0,0,0,0,0,0,0,0,0,0,0,0,0,0,0,0,0,0,0,0,0,0,0,0,0,0,0,0,0,0,0,0,0,0,0,0,0,0,0,0,0,0,0,0,0,0,0,0,0,0,0,0,0,0,0,0,0,0,0,0,0,0,0,0,0,0,0,0,0,0,0,0,0,0,0,0,0,0,0,0,0,0,0,0,0,0,0,0,0,0,0,0,0,0,0,0,0,0,0,0,0,0,0,0,0,0,0,0,0],"sum_hessian":[8.400631E6,4.099619E6,4.301012E6,2.093667E6,2.005952E6,2.037023E6,2.263989E6,9.85617E5,1.10805E6,9.81775E5,1.024177E6,1.133936E6,9.03087E5,1.073735E6,1.190254E6,5.04261E5,4.81356E5,4.59199E5,6.48851E5,6.03044E5,3.78731E5,5.3182E5,4.92357E5,5.98201E5,5.35735E5,4.77781E5,4.25306E5,4.67375E5,6.0636E5,5.36265E5,6.53989E5,1.40605E5,3.63656E5,2.85118E5,1.96238E5,3.15839E5,1.4336E5,8.9375E4,5.59476E5,4.41911E5,1.61133E5,3.41083E5,3.7648E4,6.5227E4,4.66593E5,4.04658E5,8.7699E4,5.37609E5,6.0592E4,6.5031E4,4.70704E5,1.22069E5,3.55712E5,2.8713E5,1.38176E5,3.91635E5,7.574E4,1.57368E5,4.48992E5,1.32245E5,4.0402E5,3.0998E5,3.44009E5,3.9615E4,1.0099E5,3.28558E5,3.5098E4,2.7604E4,2.57514E5,1.7243E5,2.3808E4,4.7223E4,2.68616E5,1.10712E5,3.2648E4,4.5893E4,4.3482E4,4.0542E5,1.54056E5,1.36451E5,3.0546E5,5.3711E4,1.07422E5,6.7003E4,2.7408E5,1.8824E4,1.8824E4,3.9874E4,2.5353E4,4.21149E5,4.5444E4,1.88577E5,2.16081E5,5.1987E4,3.5712E4,5.5293E4,4.82316E5,3.0296E4,3.0296E4,1.1531E4,5.35E4,4.05408E5,6.5296E4,4.7173E4,7.4896E4,2.75112E5,8.06E4,4.5242E4,2.41888E5,9.452E4,4.3656E4,6.6845E4,3.2479E5,1.5148E4,6.0592E4,6.2343E4,9.5025E4,3.76472E5,7.252E4,1.06497E5,2.5748E4,3.0434E5,9.968E4,1.16016E5,1.93964E5,3.154E5,2.8609E4],"tree_param":{"num_deleted":"0","num_feature":"30","num_nodes":"127","size_leaf_vector":"0"}},{"base_weights":[3.8539442E-11,-4.7192494E-3,5.207208E-3,-7.215528E-3,-1.994897E-3,2.9775607E-3,7.7028577E-3,-8.490076E-3,-5.780463E-3,-3.141142E-3,-6.5697386E-4,1.8902593E-3,4.3857205E-3,6.6259997E-3,8.896881E-3,-9.37604E-3,-7.864072E-3,-6.359201E-3,-4.8581525E-3,-3.7412504E-3,-2.495211E-3,-1.7500101E-3,-4.0786868E-4,1.1951547E-3,2.5215354E-3,3.6922002E-3,4.779496E-3,5.799356E-3,7.0485133E-3,8.46269E-3,9.590564E-3,-9.968908E-3,-8.9546535E-3,-9.0566045E-3,-7.6793497E-3,-6.723367E-3,-5.639545E-3,-5.043604E-3,-3.2471349E-3,-4.699702E-3,-3.4584377E-3,-2.8756736E-3,-1.6406113E-3,-2.6465878E-3,-1.0790366E-3,-8.8726764E-4,7.153134E-5,8.3024864E-4,1.9887441E-3,1.8851354E-3,2.841639E-3,3.1832734E-3,4.4490336E-3,4.57974E-3,5.548256E-3,5.409168E-3,6.306436E-3,6.4421976E-3,7.333416E-3,7.924327E-3,8.740652E-3,9.373652E-3,1.0031077E-2,-3.3433626E-3,-2.9350347E-3,-2.8355273E-3,-2.5372468E-3,-3.0428513E-3,-2.6480204E-3,-2.4686519E-3,-2.2213757E-3,-2.3537534E-3,-1.9622813E-3,-1.7579175E-3,-1.3448026E-3,-1.6461652E-3,-1.4130567E-3,-1.1060446E-3,-7.927414E-4,-1.532711E-3,-1.1193206E-3,-1.0847959E-3,-7.296069E-4,-1.1369737E-3,-8.1727846E-4,-5.45405E-4,-2.1588503E-4,-9.5799373E-4,-6.8949914E-4,-5.2802474E-4,-2.5772606E-4,-3.1439986E-4,7.5426506E-5,-3.08646E-5,3.9213747E-4,4.756283E-5,3.2820457E-4,5.210596E-4,8.5920386E-4,4.0450416E-4,6.4526824E-4,7.3011365E-4,9.3407393E-4,6.5651897E-4,1.0265469E-3,1.280545E-3,1.5750042E-3,1.1148449E-3,1.4069679E-3,1.5876486E-3,1.8220216E-3,1.3588857E-3,1.6650009E-3,1.8457933E-3,2.1002612E-3,1.8269746E-3,2.0035403E-3,2.0860126E-3,2.2760252E-3,2.3024655E-3,2.4671787E-3,2.5828453E-3,2.7802386E-3,2.7894066E-3,3.3212528E-3,2.9576656E-3,3.0657651E-3],"categories":[],"categories_nodes":[],"categories_segments":[],"categories_sizes":[],"default_left":[0,0,0,0,0,0,0,0,0,0,0,0,0,0,0,0,0,0,0,0,0,0,0,0,0,0,0,0,0,0,0,0,0,0,0,0,0,0,0,0,0,0,0,0,0,0,0,0,0,0,0,0,0,0,0,0,0,0,0,0,0,0,0,0,0,0,0,0,0,0,0,0,0,0,0,0,0,0,0,0,0,0,0,0,0,0,0,0,0,0,0,0,0,0,0,0,0,0,0,0,0,0,0,0,0,0,0,0,0,0,0,0,0,0,0,0,0,0,0,0,0,0,0,0,0,0,0],"id":11,"left_children":[1,3,5,7,9,11,13,15,17,19,21,23,25,27,29,31,33,35,37,39,41,43,45,47,49,51,53,55,57,59,61,63,65,67,69,71,73,75,77,79,81,83,85,87,89,91,93,95,97,99,101,103,105,107,109,111,113,115,117,119,121,123,125,-1,-1,-1,-1,-1,-1,-1,-1,-1,-1,-1,-1,-1,-1,-1,-1,-1,-1,-1,-1,-1,-1,-1,-1,-1,-1,-1,-1,-1,-1,-1,-1,-1,-1,-1,-1,-1,-1,-1,-1,-1,-1,-1,-1,-1,-1,-1,-1,-1,-1,-1,-1,-1,-1,-1,-1,-1,-1,-1,-1,-1,-1,-1,-1],"loss_changes":[2.064381E2,2.9969452E1,2.2223358E1,4.206154E0,3.2314787E0,3.2295837E0,2.4230347E0,6.7542267E-1,5.773659E-1,4.3989468E-1,2.6473182E-1,5.222931E-1,2.5096893E-1,3.4603882E-1,2.690735E-1,1.2588501E-1,1.5714645E-1,1.7415047E-1,1.2458801E-1,1.5944958E-1,1.7770767E-1,1.0855639E-1,1.8197946E-1,1.6404855E-1,1.2706637E-1,1.2819147E-1,8.9995384E-2,6.627846E-2,1.1322403E-1,8.218002E-2,3.277588E-2,4.5568466E-2,7.2769165E-2,2.3810863E-2,9.323883E-2,9.031868E-2,5.6860447E-2,5.5293083E-2,1.1437327E-2,5.312562E-2,7.3449135E-2,5.2342176E-2,2.7508974E-2,1.4699638E-2,1.5459806E-2,7.246134E-2,8.532055E-2,6.8754494E-2,3.9333522E-2,2.9777527E-2,4.6031475E-2,4.722643E-2,1.9331455E-2,4.424572E-2,1.622796E-2,2.3437977E-2,1.5522003E-2,1.7406464E-2,4.2894363E-2,1.3924599E-2,2.4967194E-2,2.948761E-2,3.5762787E-3,0E0,0E0,0E0,0E0,0E0,0E0,0E0,0E0,0E0,0E0,0E0,0E0,0E0,0E0,0E0,0E0,0E0,0E0,0E0,0E0,0E0,0E0,0E0,0E0,0E0,0E0,0E0,0E0,0E0,0E0,0E0,0E0,0E0,0E0,0E0,0E0,0E0,0E0,0E0,0E0,0E0,0E0,0E0,0E0,0E0,0E0,0E0,0E0,0E0,0E0,0E0,0E0,0E0,0E0,0E0,0E0,0E0,0E0,0E0,0E0,0E0,0E0,0E0,0E0],"parents":[2147483647,0,0,1,1,2,2,3,3,4,4,5,5,6,6,7,7,8,8,9,9,10,10,11,11,12,12,13,13,14,14,15,15,16,16,17,17,18,18,19,19,20,20,21,21,22,22,23,23,24,24,25,25,26,26,27,27,28,28,29,29,30,30,31,31,32,32,33,33,34,34,35,35,36,36,37,37,38,38,39,39,40,40,41,41,42,42,43,43,44,44,45,45,46,46,47,47,48,48,49,49,50,50,51,51,52,52,53,53,54,54,55,55,56,56,57,57,58,58,59,59,60,60,61,61,62,62],"right_children":[2,4,6,8,10,12,14,16,18,20,22,24,26,28,30,32,34,36,38,40,42,44,46,48,50,52,54,56,58,60,62,64,66,68,70,72,74,76,78,80,82,84,86,88,90,92,94,96,98,100,102,104,106,108,110,112,114,116,118,120,122,124,126,-1,-1,-1,-1,-1,-1,-1,-1,-1,-1,-1,-1,-1,-1,-1,-1,-1,-1,-1,-1,-1,-1,-1,-1,-1,-1,-1,-1,-1,-1,-1,-1,-1,-1,-1,-1,-1,-1,-1,-1,-1,-1,-1,-1,-1,-1,-1,-1,-1,-1,-1,-1,-1,-1,-1,-1,-1,-1,-1,-1,-1,-1,-1,-1],"split_conditions":[5.4E1,4.2E1,7.2E1,3.7E1,4.8E1,6.3E1,8.6E1,3.4E1,4E1,4.5E1,5.8E1,5.8E1,6.6E1,7.6E1,1E2,5.4E1,4.1E1,7.6E1,1.01E2,5.3E1,8.3E1,5E1,5.1E1,8.8E1,7.3E1,8.8E1,1.02E2,9.2E1,8.8E1,9.8E1,1.17E2,3.5E1,3.3E1,3.6E1,3.5E1,4.2E1,1.09E2,5.9E1,1.12E2,4.4E1,1.02E2,5E1,1.12E2,5.2E1,5.3E1,1.05E2,1.05E2,6.3E1,1.11E2,6.4E1,6E1,6.8E1,1.13E2,7.1E1,1.15E2,7.5E1,1.15E2,8.2E1,8E1,9.3E1,1.17E2,1.24E2,1.22E2,-3.3433626E-3,-2.9350347E-3,-2.8355273E-3,-2.5372468E-3,-3.0428513E-3,-2.6480204E-3,-2.4686519E-3,-2.2213757E-3,-2.3537534E-3,-1.9622813E-3,-1.7579175E-3,-1.3448026E-3,-1.6461652E-3,-1.4130567E-3,-1.1060446E-3,-7.927414E-4,-1.532711E-3,-1.1193206E-3,-1.0847959E-3,-7.296069E-4,-1.1369737E-3,-8.1727846E-4,-5.45405E-4,-2.1588503E-4,-9.5799373E-4,-6.8949914E-4,-5.2802474E-4,-2.5772606E-4,-3.1439986E-4,7.5426506E-5,-3.08646E-5,3.9213747E-4,4.756283E-5,3.2820457E-4,5.210596E-4,8.5920386E-4,4.0450416E-4,6.4526824E-4,7.3011365E-4,9.3407393E-4,6.5651897E-4,1.0265469E-3,1.280545E-3,1.5750042E-3,1.1148449E-3,1.4069679E-3,1.5876486E-3,1.8220216E-3,1.3588857E-3,1.6650009E-3,1.8457933E-3,2.1002612E-3,1.8269746E-3,2.0035403E-3,2.0860126E-3,2.2760252E-3,2.3024655E-3,2.4671787E-3,2.5828453E-3,2.7802386E-3,2.7894066E-3,3.3212528E-3,2.9576656E-3,3.0657651E-3],"split_indices":[0,0,0,0,0,0,0,0,0,0,1,0,0,0,0,1,1,1,1,1,1,0,0,1,1,1,1,1,1,1,1,1,0,1,0,1,1,1,1,0,1,1,1,1,1,1,1,1,1,1,0,1,1,1,1,1,1,1,0,1,1,0,1,0,0,0,0,0,0,0,0,0,0,0,0,0,0,0,0,0,0,0,0,0,0,0,0,0,0,0,0,0,0,0,0,0,0,0,0,0,0,0,0,0,0,0,0,0,0,0,0,0,0,0,0,0,0,0,0,0,0,0,0,0,0,0,0],"split_type":[0,0,0,0,0,0,0,0,0,0,0,0,0,0,0,0,0,0,0,0,0,0,0,0,0,0,0,0,0,0,0,0,0,0,0,0,0,0,0,0,0,0,0,0,0,0,0,0,0,0,0,0,0,0,0,0,0,0,0,0,0,0,0,0,0,0,0,0,0,0,0,0,0,0,0,0,0,0,0,0,0,0,0,0,0,0,0,0,0,0,0,0,0,0,0,0,0,0,0,0,0,0,0,0,0,0,0,0,0,0,0,0,0,0,0,0,0,0,0,0,0,0,0,0,0,0,0],"sum_hessian":[8.400631E6,4.406792E6,3.993839E6,2.299655E6,2.107137E6,2.109334E6,1.884505E6,1.21794E6,1.081715E6,1.134861E6,9.72276E5,1.190274E6,9.1906E5,9.90871E5,8.93634E5,5.04261E5,7.13679E5,6.6465E5,4.17065E5,5.88295E5,5.46566E5,1.80456E5,7.9182E5,5.66499E5,6.23775E5,3.32851E5,5.86209E5,3.35156E5,6.55715E5,5.49625E5,3.44009E5,2.09493E5,2.94768E5,9.5715E4,6.17964E5,4.41321E5,2.23329E5,3.74009E5,4.3056E4,1.34035E5,4.5426E5,3.78194E5,1.68372E5,7.7241E4,1.03215E5,3.9591E5,3.9591E5,3.88063E5,1.78436E5,2.08755E5,4.1502E5,1.99024E5,1.33827E5,4.65309E5,1.209E5,1.89416E5,1.4574E5,2.09625E5,4.4609E5,1.8716E5,3.62465E5,2.30521E5,1.13488E5,2.8537E4,1.80956E5,1.47384E5,1.47384E5,1.671E4,7.9005E4,2.05988E5,4.11976E5,6.1692E4,3.79629E5,1.87617E5,3.5712E4,1.60477E5,2.13532E5,2.4926E4,1.813E4,9.4216E4,3.9819E4,3.9381E5,6.045E4,5.3732E4,3.24462E5,1.41177E5,2.7195E4,3.0053E4,4.7188E4,2.5195E4,7.802E4,3.46938E5,4.8972E4,3.46938E5,4.8972E4,1.09419E5,2.78644E5,1.38564E5,3.9872E4,6.913E4,1.39625E5,1.66008E5,2.49012E5,3.8494E4,1.6053E5,1.09215E5,2.4612E4,5.2641E4,4.12668E5,8.1276E4,3.9624E4,2.6148E4,1.63268E5,1.19324E5,2.6416E4,8.4163E4,1.25462E5,1.78436E5,2.67654E5,1.02144E5,8.5016E4,2.90221E5,7.2244E4,2.20693E5,9.828E3,5.9283E4,5.4205E4],"tree_param":{"num_deleted":"0","num_feature":"30","num_nodes":"127","size_leaf_vector":"0"}},{"base_weights":[5.167919E-9,-3.3034824E-3,3.645065E-3,-5.2236523E-3,-1.5654871E-3,1.9323181E-3,5.2390695E-3,-6.151725E-3,-4.398122E-3,-2.5073423E-3,-6.1209354E-4,1.2334666E-3,2.8114778E-3,4.5227297E-3,6.2839976E-3,-6.9372607E-3,-5.8774888E-3,-4.8081875E-3,-3.7448956E-3,-2.9639306E-3,-2.0161443E-3,-1.1088367E-3,-2.0403172E-4,7.185564E-4,1.5789211E-3,2.1158955E-3,3.1117268E-3,3.9226864E-3,4.9628178E-3,6.0315216E-3,6.819719E-3,-7.08168E-3,-5.477146E-3,-5.987054E-3,-4.662805E-3,-5.0571607E-3,-4.2049964E-3,-4.7326894E-3,-3.3756632E-3,-3.176338E-3,-2.344864E-3,-2.2449512E-3,-1.3314093E-3,-1.5757643E-3,-7.789077E-4,-3.2536127E-4,5.6382985E-4,1.8337747E-4,1.0473201E-3,1.3616033E-3,2.0883933E-3,1.1813598E-3,2.3474235E-3,2.9812795E-3,3.7317579E-3,3.700215E-3,4.257573E-3,4.7841477E-3,5.5432864E-3,5.7463995E-3,6.287321E-3,6.717171E-3,7.3702214E-3,-2.3821464E-3,-2.0809972E-3,-1.7748285E-3,-1.441136E-3,-2.0402723E-3,-1.7621593E-3,-1.4972811E-3,-1.2285919E-3,-1.6769998E-3,-1.4633958E-3,-1.3136436E-3,-9.668016E-4,-1.7036315E-3,-1.3766038E-3,-1.0562589E-3,-7.2001596E-4,-1.1423815E-3,-9.171249E-4,-8.299937E-4,-4.503791E-4,-9.907611E-4,-6.509846E-4,-5.1630265E-4,-1.656572E-4,-6.250724E-4,-4.0784353E-4,-4.5525027E-4,-1.2288163E-4,-2.8708807E-4,-6.8359586E-5,-7.266317E-5,2.4975286E-4,-4.8438742E-5,1.1254083E-4,2.805392E-4,5.3195626E-4,1.5514733E-4,4.3063413E-4,5.7742035E-4,8.3264866E-4,1.7744522E-4,4.3829263E-4,6.083505E-4,8.083571E-4,7.8648876E-4,9.5911825E-4,1.0838049E-3,1.3694813E-3,9.952524E-4,1.1448879E-3,1.2257352E-3,1.3888341E-3,1.3468147E-3,1.5014708E-3,1.610988E-3,1.7862236E-3,1.6451317E-3,1.775522E-3,1.8390834E-3,1.9466499E-3,2.2703093E-3,1.9876075E-3,2.164212E-3,2.4208745E-3],"categories":[],"categories_nodes":[],"categories_segments":[],"categories_sizes":[],"default_left":[0,0,0,0,0,0,0,0,0,0,0,0,0,0,0,0,0,0,0,0,0,0,0,0,0,0,0,0,0,0,0,0,0,0,0,0,0,0,0,0,0,0,0,0,0,0,0,0,0,0,0,0,0,0,0,0,0,0,0,0,0,0,0,0,0,0,0,0,0,0,0,0,0,0,0,0,0,0,0,0,0,0,0,0,0,0,0,0,0,0,0,0,0,0,0,0,0,0,0,0,0,0,0,0,0,0,0,0,0,0,0,0,0,0,0,0,0,0,0,0,0,0,0,0,0,0,0],"id":12,"left_children":[1,3,5,7,9,11,13,15,17,19,21,23,25,27,29,31,33,35,37,39,41,43,45,47,49,51,53,55,57,59,61,63,65,67,69,71,73,75,77,79,81,83,85,87,89,91,93,95,97,99,101,103,105,107,109,111,113,115,117,119,121,123,125,-1,-1,-1,-1,-1,-1,-1,-1,-1,-1,-1,-1,-1,-1,-1,-1,-1,-1,-1,-1,-1,-1,-1,-1,-1,-1,-1,-1,-1,-1,-1,-1,-1,-1,-1,-1,-1,-1,-1,-1,-1,-1,-1,-1,-1,-1,-1,-1,-1,-1,-1,-1,-1,-1,-1,-1,-1,-1,-1,-1,-1,-1,-1,-1],"loss_changes":[1.01155464E2,1.4706547E1,1.0903675E1,1.604042E0,2.0770898E0,1.1828523E0,1.5483894E0,2.1228027E-1,2.9678917E-1,2.6096153E-1,2.3301029E-1,1.9079065E-1,1.7806053E-1,3.2406998E-1,1.1375809E-1,5.374241E-2,9.72023E-2,1.0220814E-1,1.5584278E-1,7.928991E-2,8.7821245E-2,7.9864144E-2,5.879579E-2,7.577559E-2,7.106972E-2,5.5620193E-2,4.8157692E-2,3.867197E-2,7.3402405E-2,4.1669846E-2,1.5164375E-2,2.8849602E-2,6.7578554E-3,6.169319E-2,1.1236429E-2,4.597473E-2,3.3944845E-2,1.581502E-2,4.4056177E-2,3.38068E-2,5.4811656E-2,3.3320427E-2,4.2622417E-2,2.3572445E-2,8.285992E-2,3.3559006E-2,1.8649409E-2,1.0837389E-2,2.1723896E-2,2.8059065E-2,2.1578431E-2,8.418411E-3,2.2849083E-2,3.817606E-2,1.0253072E-2,1.3848305E-2,1.3221979E-2,3.5204887E-2,1.1832237E-2,1.2184143E-2,9.49955E-3,1.7691612E-2,4.5628548E-3,0E0,0E0,0E0,0E0,0E0,0E0,0E0,0E0,0E0,0E0,0E0,0E0,0E0,0E0,0E0,0E0,0E0,0E0,0E0,0E0,0E0,0E0,0E0,0E0,0E0,0E0,0E0,0E0,0E0,0E0,0E0,0E0,0E0,0E0,0E0,0E0,0E0,0E0,0E0,0E0,0E0,0E0,0E0,0E0,0E0,0E0,0E0,0E0,0E0,0E0,0E0,0E0,0E0,0E0,0E0,0E0,0E0,0E0,0E0,0E0,0E0,0E0,0E0,0E0],"parents":[2147483647,0,0,1,1,2,2,3,3,4,4,5,5,6,6,7,7,8,8,9,9,10,10,11,11,12,12,13,13,14,14,15,15,16,16,17,17,18,18,19,19,20,20,21,21,22,22,23,23,24,24,25,25,26,26,27,27,28,28,29,29,30,30,31,31,32,32,33,33,34,34,35,35,36,36,37,37,38,38,39,39,40,40,41,41,42,42,43,43,44,44,45,45,46,46,47,47,48,48,49,49,50,50,51,51,52,52,53,53,54,54,55,55,56,56,57,57,58,58,59,59,60,60,61,61,62,62],"right_children":[2,4,6,8,10,12,14,16,18,20,22,24,26,28,30,32,34,36,38,40,42,44,46,48,50,52,54,56,58,60,62,64,66,68,70,72,74,76,78,80,82,84,86,88,90,92,94,96,98,100,102,104,106,108,110,112,114,116,118,120,122,124,126,-1,-1,-1,-1,-1,-1,-1,-1,-1,-1,-1,-1,-1,-1,-1,-1,-1,-1,-1,-1,-1,-1,-1,-1,-1,-1,-1,-1,-1,-1,-1,-1,-1,-1,-1,-1,-1,-1,-1,-1,-1,-1,-1,-1,-1,-1,-1,-1,-1,-1,-1,-1,-1,-1,-1,-1,-1,-1,-1,-1,-1,-1,-1,-1],"split_conditions":[5.4E1,4.1E1,7E1,3.6E1,4.7E1,6.2E1,8.7E1,3.3E1,3.9E1,4.4E1,5E1,5.7E1,7.6E1,7.6E1,1.03E2,1E2,1.02E2,7.9E1,5.2E1,8.5E1,8.7E1,6.7E1,1.01E2,7.1E1,9.1E1,6.7E1,1.08E2,9.3E1,1.06E2,1.03E2,1.19E2,3.8E1,1.12E2,3.9E1,1.14E2,4.5E1,1.11E2,4.1E1,1.02E2,4.7E1,4.3E1,4.7E1,4.6E1,5.3E1,4.8E1,5.6E1,5.1E1,5.5E1,1.09E2,6.1E1,1.14E2,6.3E1,6.6E1,6.5E1,6.9E1,7.6E1,1.1E2,8E1,1.18E2,9.4E1,9.6E1,1.04E2,1.25E2,-2.3821464E-3,-2.0809972E-3,-1.7748285E-3,-1.441136E-3,-2.0402723E-3,-1.7621593E-3,-1.4972811E-3,-1.2285919E-3,-1.6769998E-3,-1.4633958E-3,-1.3136436E-3,-9.668016E-4,-1.7036315E-3,-1.3766038E-3,-1.0562589E-3,-7.2001596E-4,-1.1423815E-3,-9.171249E-4,-8.299937E-4,-4.503791E-4,-9.907611E-4,-6.509846E-4,-5.1630265E-4,-1.656572E-4,-6.250724E-4,-4.0784353E-4,-4.5525027E-4,-1.2288163E-4,-2.8708807E-4,-6.8359586E-5,-7.266317E-5,2.4975286E-4,-4.8438742E-5,1.1254083E-4,2.805392E-4,5.3195626E-4,1.5514733E-4,4.3063413E-4,5.7742035E-4,8.3264866E-4,1.7744522E-4,4.3829263E-4,6.083505E-4,8.083571E-4,7.8648876E-4,9.5911825E-4,1.0838049E-3,1.3694813E-3,9.952524E-4,1.1448879E-3,1.2257352E-3,1.3888341E-3,1.3468147E-3,1.5014708E-3,1.610988E-3,1.7862236E-3,1.6451317E-3,1.775522E-3,1.8390834E-3,1.9466499E-3,2.2703093E-3,1.9876075E-3,2.164212E-3,2.4208745E-3],"split_indices":[0,0,0,0,0,0,0,0,0,0,0,0,1,0,0,1,1,1,1,1,1,1,1,1,1,1,1,1,1,1,0,1,1,1,1,1,1,1,1,1,0,1,0,1,0,1,0,0,1,1,1,0,0,0,0,1,1,0,1,1,0,0,0,0,0,0,0,0,0,0,0,0,0,0,0,0,0,0,0,0,0,0,0,0,0,0,0,0,0,0,0,0,0,0,0,0,0,0,0,0,0,0,0,0,0,0,0,0,0,0,0,0,0,0,0,0,0,0,0,0,0,0,0,0,0,0,0],"split_type":[0,0,0,0,0,0,0,0,0,0,0,0,0,0,0,0,0,0,0,0,0,0,0,0,0,0,0,0,0,0,0,0,0,0,0,0,0,0,0,0,0,0,0,0,0,0,0,0,0,0,0,0,0,0,0,0,0,0,0,0,0,0,0,0,0,0,0,0,0,0,0,0,0,0,0,0,0,0,0,0,0,0,0,0,0,0,0,0,0,0,0,0,0,0,0,0,0,0,0,0,0,0,0,0,0,0,0,0,0,0,0,0,0,0,0,0,0,0,0,0,0,0,0,0,0,0,0],"sum_hessian":[8.400631E6,4.406792E6,3.993839E6,2.093667E6,2.313125E6,1.925213E6,2.068626E6,9.85617E5,1.10805E6,1.163603E6,1.149522E6,1.072598E6,8.52615E5,1.227281E6,8.41345E5,2.55041E5,7.30576E5,6.80719E5,4.27331E5,6.03044E5,5.60559E5,5.18427E5,6.31095E5,4.30672E5,6.41926E5,2.57071E5,5.95544E5,5.19277E5,7.08004E5,5.71853E5,2.69492E5,2.32082E5,2.2959E4,6.70126E5,6.045E4,4.81831E5,1.98888E5,1.16269E5,3.11062E5,4.48988E5,1.54056E5,4.20159E5,1.404E5,2.14647E5,3.0378E5,5.44983E5,8.6112E4,1.63888E5,2.66784E5,4.49986E5,1.9194E5,5.1044E4,2.06027E5,4.92032E5,1.03512E5,3.12013E5,2.07264E5,5.41376E5,1.66628E5,2.70438E5,3.01415E5,2.27185E5,4.2307E4,3.3521E4,1.98561E5,1.3894E4,9.065E3,8.1814E4,5.88312E5,3.8298E4,2.2152E4,1.21243E5,3.60588E5,1.68984E5,2.9904E4,1.5355E4,1.00914E5,2.70762E5,4.03E4,7.1306E4,3.77682E5,1.02704E5,5.1352E4,2.7821E4,3.92338E5,9.36E4,4.68E4,6.4112E4,1.50535E5,1.0126E5,2.0252E5,7.2875E4,4.72108E5,2.1528E4,6.4584E4,5.8567E4,1.05321E5,2.31072E5,3.5712E4,3.6186E4,4.138E5,1.5502E5,3.692E4,1.6416E4,3.4628E4,1.07268E5,9.8759E4,1.84512E5,3.0752E5,9.0573E4,1.2939E4,7.2619E4,2.39394E5,1.4178E5,6.5484E4,2.31836E5,3.0954E5,1.17194E5,4.9434E4,1.07039E5,1.63399E5,1.69416E5,1.31999E5,2.2127E4,2.05058E5,3.4593E4,7.714E3],"tree_param":{"num_deleted":"0","num_feature":"30","num_nodes":"127","size_leaf_vector":"0"}},{"base_weights":[3.6588712E-9,-2.3995799E-3,2.4631985E-3,-3.7988361E-3,-1.2893423E-3,1.3650396E-3,